{"learner":{"attributes":{"scikit_learn":"{\"_estimator_type\": \"classifier\"}"},"feature_names":["domain_digit_count","subdomain_digit_count","path_digit_count","domain_length","subdomain_length","path_length","isKnownTld","www","com","punnyCode","random_domain","subDomainCount","char_repeat","alexa1m_tld","alexa1m","-",".","/","@","?","&","=","_","domain_in_brand_list","raw_word_count","splitted_word_count","average_word_length","longest_word_length","shortest_word_length","std_word_length","compound_word_count","keyword_count","brand_name_count","negligible_word_count","target_brand_count","target_keyword_count","similar_keyword_count","similar_brand_count","average_compound_words","random_words"],"feature_types":["int","int","int","int","int","int","int","int","int","int","int","int","int","int","int","int","int","int","int","int","int","int","int","int","int","int","float","int","int","float","int","int","int","int","int","int","int","int","float","int"],"gradient_booster":{"model":{"gbtree_model_param":{"num_parallel_tree":"1","num_trees":"300"},"iteration_indptr":[0,1,2,3,4,5,6,7,8,9,10,11,12,13,14,15,16,17,18,19,20,21,22,23,24,25,26,27,28,29,30,31,32,33,34,35,36,37,38,39,40,41,42,43,44,45,46,47,48,49,50,51,52,53,54,55,56,57,58,59,60,61,62,63,64,65,66,67,68,69,70,71,72,73,74,75,76,77,78,79,80,81,82,83,84,85,86,87,88,89,90,91,92,93,94,95,96,97,98,99,100,101,102,103,104,105,106,107,108,109,110,111,112,113,114,115,116,117,118,119,120,121,122,123,124,125,126,127,128,129,130,131,132,133,134,135,136,137,138,139,140,141,142,143,144,145,146,147,148,149,150,151,152,153,154,155,156,157,158,159,160,161,162,163,164,165,166,167,168,169,170,171,172,173,174,175,176,177,178,179,180,181,182,183,184,185,186,187,188,189,190,191,192,193,194,195,196,197,198,199,200,201,202,203,204,205,206,207,208,209,210,211,212,213,214,215,216,217,218,219,220,221,222,223,224,225,226,227,228,229,230,231,232,233,234,235,236,237,238,239,240,241,242,243,244,245,246,247,248,249,250,251,252,253,254,255,256,257,258,259,260,261,262,263,264,265,266,267,268,269,270,271,272,273,274,275,276,277,278,279,280,281,282,283,284,285,286,287,288,289,290,291,292,293,294,295,296,297,298,299,300],"tree_info":[0,0,0,0,0,0,0,0,0,0,0,0,0,0,0,0,0,0,0,0,0,0,0,0,0,0,0,0,0,0,0,0,0,0,0,0,0,0,0,0,0,0,0,0,0,0,0,0,0,0,0,0,0,0,0,0,0,0,0,0,0,0,0,0,0,0,0,0,0,0,0,0,0,0,0,0,0,0,0,0,0,0,0,0,0,0,0,0,0,0,0,0,0,0,0,0,0,0,0,0,0,0,0,0,0,0,0,0,0,0,0,0,0,0,0,0,0,0,0,0,0,0,0,0,0,0,0,0,0,0,0,0,0,0,0,0,0,0,0,0,0,0,0,0,0,0,0,0,0,0,0,0,0,0,0,0,0,0,0,0,0,0,0,0,0,0,0,0,0,0,0,0,0,0,0,0,0,0,0,0,0,0,0,0,0,0,0,0,0,0,0,0,0,0,0,0,0,0,0,0,0,0,0,0,0,0,0,0,0,0,0,0,0,0,0,0,0,0,0,0,0,0,0,0,0,0,0,0,0,0,0,0,0,0,0,0,0,0,0,0,0,0,0,0,0,0,0,0,0,0,0,0,0,0,0,0,0,0,0,0,0,0,0,0,0,0,0,0,0,0,0,0,0,0,0,0,0,0,0,0,0,0,0,0,0,0,0,0,0,0,0,0,0,0,0,0,0,0,0,0],"trees":[{"base_weights":[-7.794524E-8,1.1632032E0,-3.7081048E-1,1.4996357E0,-1.2742382E-1,-9.472369E-1,2.800872E-1,1.2181466E0,1.7935495E0,3.5276902E-1,-1.7667825E0,-6.196004E-1,-1.5564333E0,6.035666E-1,-1.3657633E0,1.4774548E0,5.6401193E-1,1.8815455E0,1.5749251E0,8.007351E-1,-9.757449E-1,1.5428871E0,-1.9372704E0,-2.793461E-1,-1.4909593E0,-1.6551472E0,1.6047764E0,1.1474729E0,-1.670687E-1,-1.6212604E0,1.1798441E0,1.2617667E0,1.7221696E0,-1.1658432E0,1.1551921E0,1.3243573E0,3.802825E-1,1.3986974E0,1.7874463E0,2.569507E-1,1.578981E0,-1.1879363E0,1.3600311E0,3.48393E-1,3.3855438E-6,-1.0475885E0,-3.9732662E-1,5.13744E-2,-1.5203089E0,-1.6233332E0,4.6934745E-1,-1.6856697E0,1.631611E0,4.4448208E-2,1.6290655E0,1.2267537E0,-1.8935028E0,-4.9542475E-1,9.4803864E-1,-1.7010478E0,1.1555879E0,1.6391311E0,-1.1272414E0,1.4447453E0,7.050696E-1,1.7360212E0,3.3336154E-1,2.6774934E-1,-1.759164E0,3.0685166E-1,1.4881424E0,7.826396E-1,3.0189332E-1,1.278907E0,1.8125331E0,3.9101794E-1,1.6033393E0,-1.2740456E-1,1.449426E0,1.2149867E0,1.8653185E0,-1.4388804E0,4.2585608E-2,-1.9999662E-1,3.3044097E-1,2.6667118E-1,-3.529352E-1,4.7429472E-1,-4.689387E-1,-1.6612275E0,1.1596966E0,-1.6565117E0,1.6279377E0,1.2277559E0,-1.4936388E0,-1.8228544E0,-1.2986798E0,3.7747118E-1,-2.2221847E-1,3.6923733E-1,1.344295E0,1.3141284E0,-5.616686E-1,-3.9376765E-1,1.6000406E-1,-5.9585404E-1,1.509327E0,1.3052241E0,-1.4929246E0,-1.7388661E0,1.5675977E0,-1.5999594E-1,1.3333656E0,6.3832885E-1,1.8206611E0,2.2222598E-1,-1.4399688E0,2.9501602E-1,4.4450615E-2,2.7892554E-1,7.147337E-2,3.6519894E-1,2.9813406E-1,3.0000508E-1,-2.6666215E-1,1.2211175E-1,-1.3332732E-1,2.8571913E-1,-3.77848E-1,2.2667323E-1,-2.3722157E-2,3.217971E-1,-2.7367815E-1,1.800061E-1,4.0626524E-6,2.7898762E-1,7.4425064E-2,4.4448208E-2,3.7006012E-1,1.4286296E-1,3.3157012E-1,2.921413E-1,-6.6659935E-2,1.5258382E-1,3.6883777E-1,2.5733152E-1,-2.5454113E-1,1.00003384E-1,3.748758E-1,-3.0797452E-1,2.0000541E-1,3.111169E-1,-1.0703587E-1,-3.3042368E-3,2.0278454E-1,-1.4140739E-1,1.3931914E-1,6.753889E-2,-3.4596437E-1,2.264777E-2,3.7714925E-1,-1.6223627E-1,-3.5686162E-1,3.5898045E-1,3.3855438E-6,-2.5713706E-1,3.1910774E-1,2.000045E-1,-3.661908E-1,1.8776132E-1,-3.6896527E-1,-2.9878324E-2,-3.7270114E-1,5.8037895E-6,3.3470038E-1,1.867419E-1,3.3527443E-1,3.2131812E-1,-3.834985E-1,-1.4404769E-1,6.0649913E-2,3.5656774E-1,4.61601E-2,1.5690099E-1,3.7037712E-1,-3.9143723E-1,3.2000586E-1,-1.9209859E-1,-3.6467317E-1,4.4448208E-2,3.5000592E-1,3.3600625E-1,1.4737448E-1,3.000059E-1,-1.8946834E-1,1.5000509E-1,3.7346634E-1,-1.5651615E-1,-3.4838122E-1],"categories":[],"categories_nodes":[],"categories_segments":[],"categories_sizes":[],"default_left":[0,0,0,0,0,0,0,0,0,0,0,0,0,0,0,0,0,0,0,0,0,0,0,0,0,0,0,0,0,0,0,0,0,0,0,0,0,0,0,0,0,0,0,0,0,0,0,0,0,0,0,0,0,0,0,0,0,0,0,0,0,0,0,0,0,0,0,0,0,0,0,0,0,0,0,0,0,0,0,0,0,0,0,0,0,0,0,0,0,0,0,0,0,0,0,0,0,0,0,0,0,0,0,0,0,0,0,0,0,0,0,0,0,0,0,0,0,0,0,0,0,0,0,0,0,0,0,0,0,0,0,0,0,0,0,0,0,0,0,0,0,0,0,0,0,0,0,0,0,0,0,0,0,0,0,0,0,0,0,0,0,0,0,0,0,0,0,0,0,0,0,0,0,0,0,0,0,0,0,0,0,0,0,0,0,0,0,0,0,0,0,0,0,0,0,0,0,0,0],"id":0,"left_children":[1,3,5,7,9,11,13,15,17,19,21,23,25,27,29,31,33,35,37,39,41,43,45,47,49,51,53,55,57,59,61,63,65,67,69,71,-1,73,75,77,79,81,83,-1,-1,85,-1,87,89,91,93,95,97,-1,99,101,103,105,107,109,111,113,115,117,119,121,123,125,127,129,131,133,-1,135,137,-1,139,141,143,145,147,149,151,-1,-1,-1,-1,153,155,157,159,161,163,165,167,169,171,-1,-1,-1,173,175,177,-1,-1,179,181,183,185,187,189,-1,191,193,195,-1,197,-1,-1,-1,-1,-1,-1,-1,-1,-1,-1,-1,-1,-1,-1,-1,-1,-1,-1,-1,-1,-1,-1,-1,-1,-1,-1,-1,-1,-1,-1,-1,-1,-1,-1,-1,-1,-1,-1,-1,-1,-1,-1,-1,-1,-1,-1,-1,-1,-1,-1,-1,-1,-1,-1,-1,-1,-1,-1,-1,-1,-1,-1,-1,-1,-1,-1,-1,-1,-1,-1,-1,-1,-1,-1,-1,-1,-1,-1,-1,-1,-1,-1],"loss_changes":[6.356371E3,1.5469512E3,4.192878E3,2.3159961E2,5.811894E2,1.181935E3,2.7953853E3,2.4452539E2,2.3589844E1,3.4074884E2,9.736133E1,1.1426759E3,6.492339E2,1.839227E3,5.62879E2,5.246997E1,4.2293677E2,8.318848E0,1.2565002E1,1.8061722E2,7.323439E1,2.6875439E0,4.923523E0,1.1385605E3,2.8166382E2,2.0436914E2,1.7619324E0,6.224695E2,6.654937E2,1.7572217E2,8.5822136E1,5.5413757E1,8.698364E0,9.020723E1,8.646896E1,2.528885E0,0E0,8.811218E0,2.3823242E0,1.1614321E2,1.605127E1,4.1130646E1,1.0271355E1,0E0,0E0,2.028007E1,0E0,4.8240915E2,2.2238708E2,1.12106445E2,1.0492944E2,1.0337256E2,1.5424236E1,0E0,1.3516235E0,3.9256714E2,1.4916962E1,2.8352432E2,3.6246957E2,9.701294E1,8.888929E0,1.0919235E1,1.1224997E1,1.5099121E1,3.282843E1,7.8134766E0,1.3666678E1,1.0577063E1,3.3694138E1,3.1079706E1,7.840286E1,1.0565138E0,0E0,1.8156555E1,2.4717255E0,0E0,3.213684E0,6.334959E1,1.5327744E1,1.5945717E1,2.5650024E-1,2.8757217E1,2.1375221E1,0E0,0E0,0E0,0E0,3.2029633E2,2.7328644E2,7.668274E1,2.2389927E1,1.070686E2,2.9218712E0,4.873358E1,1.844371E1,9.080908E1,3.4036182E2,0E0,0E0,0E0,1.3497467E1,3.279253E2,3.485045E2,0E0,0E0,1.4979703E2,2.3105316E1,1.0137958E2,7.959534E1,4.7874023E1,1.8813534E0,0E0,3.1044884E0,1.7475931E1,1.3851318E0,0E0,1.1179428E0,0E0,0E0,0E0,0E0,0E0,0E0,0E0,0E0,0E0,0E0,0E0,0E0,0E0,0E0,0E0,0E0,0E0,0E0,0E0,0E0,0E0,0E0,0E0,0E0,0E0,0E0,0E0,0E0,0E0,0E0,0E0,0E0,0E0,0E0,0E0,0E0,0E0,0E0,0E0,0E0,0E0,0E0,0E0,0E0,0E0,0E0,0E0,0E0,0E0,0E0,0E0,0E0,0E0,0E0,0E0,0E0,0E0,0E0,0E0,0E0,0E0,0E0,0E0,0E0,0E0,0E0,0E0,0E0,0E0,0E0,0E0,0E0,0E0,0E0,0E0,0E0,0E0,0E0,0E0,0E0,0E0,0E0],"parents":[2147483647,0,0,1,1,2,2,3,3,4,4,5,5,6,6,7,7,8,8,9,9,10,10,11,11,12,12,13,13,14,14,15,15,16,16,17,17,18,18,19,19,20,20,21,21,22,22,23,23,24,24,25,25,26,26,27,27,28,28,29,29,30,30,31,31,32,32,33,33,34,34,35,35,37,37,38,38,39,39,40,40,41,41,42,42,45,45,47,47,48,48,49,49,50,50,51,51,52,52,54,54,55,55,56,56,57,57,58,58,59,59,60,60,61,61,62,62,63,63,64,64,65,65,66,66,67,67,68,68,69,69,70,70,71,71,73,73,74,74,76,76,77,77,78,78,79,79,80,80,81,81,82,82,87,87,88,88,89,89,90,90,91,91,92,92,93,93,94,94,95,95,96,96,100,100,101,101,102,102,105,105,106,106,107,107,108,108,109,109,110,110,112,112,113,113,114,114,116,116],"right_children":[2,4,6,8,10,12,14,16,18,20,22,24,26,28,30,32,34,36,38,40,42,44,46,48,50,52,54,56,58,60,62,64,66,68,70,72,-1,74,76,78,80,82,84,-1,-1,86,-1,88,90,92,94,96,98,-1,100,102,104,106,108,110,112,114,116,118,120,122,124,126,128,130,132,134,-1,136,138,-1,140,142,144,146,148,150,152,-1,-1,-1,-1,154,156,158,160,162,164,166,168,170,172,-1,-1,-1,174,176,178,-1,-1,180,182,184,186,188,190,-1,192,194,196,-1,198,-1,-1,-1,-1,-1,-1,-1,-1,-1,-1,-1,-1,-1,-1,-1,-1,-1,-1,-1,-1,-1,-1,-1,-1,-1,-1,-1,-1,-1,-1,-1,-1,-1,-1,-1,-1,-1,-1,-1,-1,-1,-1,-1,-1,-1,-1,-1,-1,-1,-1,-1,-1,-1,-1,-1,-1,-1,-1,-1,-1,-1,-1,-1,-1,-1,-1,-1,-1,-1,-1,-1,-1,-1,-1,-1,-1,-1,-1,-1,-1,-1,-1],"split_conditions":[1E0,2E0,1E1,1E1,5E0,4.004997E0,3E0,4E0,1E0,5E0,1E0,2E0,2E0,1E0,1E0,1E0,2.7E1,6E0,5E0,2E0,1E0,1.2E1,2E0,1E0,2E0,1E0,4.189935E0,5.9875E1,1E0,2E0,1.7E1,1E1,1E0,8E0,1E0,1.2E1,3.802825E-1,1E0,3E0,1.2E1,3E0,3E0,1E0,3.48393E-1,3.3855438E-6,3E0,-3.9732662E-1,1E0,3E0,1E0,6.6E1,4E0,1.7E1,4.4448208E-2,7.8E1,2E0,1E0,2E0,2.4222221E1,2.5E1,6E0,1E0,1.1E1,2E0,3E0,1E0,2.0880613E0,1E0,8E0,4E0,2E0,2.8613808E0,3.0189332E-1,2E0,7E0,3.9101794E-1,3.1E1,1.8E1,1.1E1,1E0,5E0,2.1E1,5E0,-1.9999662E-1,3.3044097E-1,2.6667118E-1,-3.529352E-1,1E0,2E0,5E0,2E0,3E0,1.3E1,7.7E1,5E0,4E0,2.31E2,3.7747118E-1,-2.2221847E-1,3.6923733E-1,1.8E1,1E0,3E0,-3.9376765E-1,1.6000406E-1,2E0,4E0,1.1E1,4E0,4E0,3.7E1,-1.5999594E-1,6E0,1E0,5.4E1,2.2222598E-1,2E1,2.9501602E-1,4.4450615E-2,2.7892554E-1,7.147337E-2,3.6519894E-1,2.9813406E-1,3.0000508E-1,-2.6666215E-1,1.2211175E-1,-1.3332732E-1,2.8571913E-1,-3.77848E-1,2.2667323E-1,-2.3722157E-2,3.217971E-1,-2.7367815E-1,1.800061E-1,4.0626524E-6,2.7898762E-1,7.4425064E-2,4.4448208E-2,3.7006012E-1,1.4286296E-1,3.3157012E-1,2.921413E-1,-6.6659935E-2,1.5258382E-1,3.6883777E-1,2.5733152E-1,-2.5454113E-1,1.00003384E-1,3.748758E-1,-3.0797452E-1,2.0000541E-1,3.111169E-1,-1.0703587E-1,-3.3042368E-3,2.0278454E-1,-1.4140739E-1,1.3931914E-1,6.753889E-2,-3.4596437E-1,2.264777E-2,3.7714925E-1,-1.6223627E-1,-3.5686162E-1,3.5898045E-1,3.3855438E-6,-2.5713706E-1,3.1910774E-1,2.000045E-1,-3.661908E-1,1.8776132E-1,-3.6896527E-1,-2.9878324E-2,-3.7270114E-1,5.8037895E-6,3.3470038E-1,1.867419E-1,3.3527443E-1,3.2131812E-1,-3.834985E-1,-1.4404769E-1,6.0649913E-2,3.5656774E-1,4.61601E-2,1.5690099E-1,3.7037712E-1,-3.9143723E-1,3.2000586E-1,-1.9209859E-1,-3.6467317E-1,4.4448208E-2,3.5000592E-1,3.3600625E-1,1.4737448E-1,3.000059E-1,-1.8946834E-1,1.5000509E-1,3.7346634E-1,-1.5651615E-1,-3.4838122E-1],"split_indices":[6,15,3,3,39,29,15,2,7,15,1,15,1,7,21,31,5,5,24,31,19,12,21,14,21,18,29,26,39,16,26,27,14,3,39,3,0,39,30,2,31,31,31,0,0,1,0,7,16,18,2,33,12,0,2,11,16,16,26,2,24,16,12,11,33,7,29,7,27,33,7,29,0,2,27,0,5,5,3,14,24,3,3,0,0,0,0,16,31,5,11,33,2,5,39,3,5,0,0,0,24,16,21,0,0,31,2,2,25,33,2,0,33,7,5,0,24,0,0,0,0,0,0,0,0,0,0,0,0,0,0,0,0,0,0,0,0,0,0,0,0,0,0,0,0,0,0,0,0,0,0,0,0,0,0,0,0,0,0,0,0,0,0,0,0,0,0,0,0,0,0,0,0,0,0,0,0,0,0,0,0,0,0,0,0,0,0,0,0,0,0,0,0,0,0,0,0,0,0],"split_type":[0,0,0,0,0,0,0,0,0,0,0,0,0,0,0,0,0,0,0,0,0,0,0,0,0,0,0,0,0,0,0,0,0,0,0,0,0,0,0,0,0,0,0,0,0,0,0,0,0,0,0,0,0,0,0,0,0,0,0,0,0,0,0,0,0,0,0,0,0,0,0,0,0,0,0,0,0,0,0,0,0,0,0,0,0,0,0,0,0,0,0,0,0,0,0,0,0,0,0,0,0,0,0,0,0,0,0,0,0,0,0,0,0,0,0,0,0,0,0,0,0,0,0,0,0,0,0,0,0,0,0,0,0,0,0,0,0,0,0,0,0,0,0,0,0,0,0,0,0,0,0,0,0,0,0,0,0,0,0,0,0,0,0,0,0,0,0,0,0,0,0,0,0,0,0,0,0,0,0,0,0,0,0,0,0,0,0,0,0,0,0,0,0,0,0,0,0,0,0],"sum_hessian":[1.473475E4,3.56125E3,1.11735E4,2.82475E3,7.365E2,5.9255E3,5.248E3,1.4455E3,1.37925E3,5.7025E2,1.6625E2,3.8545E3,2.071E3,4.3865E3,8.615E2,1.03425E3,4.1125E2,9.78E2,4.0125E2,4.2675E2,1.435E2,7.75E0,1.585E2,2.773E3,1.0815E3,2.00875E3,6.225E1,2.57125E3,1.81525E3,7.8325E2,7.825E1,5.53E2,4.8125E2,1.045E2,3.0675E2,3.6E1,9.42E2,2.235E2,1.7775E2,2.52E2,1.7475E2,1.32E2,1.15E1,6.75E0,1E0,9.5E0,1.49E2,2.19025E3,5.8275E2,1.01325E3,6.825E1,1.99075E3,1.8E1,1.25E0,6.1E1,2.5065E3,6.475E1,1.40275E3,4.125E2,7.6175E2,2.15E1,6.55E1,1.275E1,4.15E2,1.38E2,4.7625E2,5E0,3.075E1,7.375E1,8.7E1,2.1975E2,1.05E1,2.55E1,1.765E2,4.7E1,8.8E1,8.975E1,1.9125E2,6.075E1,7.925E1,9.55E1,1.095E2,2.25E1,1E0,1.05E1,2E0,7.5E0,1.20825E3,9.82E2,5.54E2,2.875E1,1.0035E3,9.75E0,4.95E1,1.875E1,1.467E3,5.2375E2,1.675E1,1.25E0,3.15E1,2.95E1,2.39E3,1.165E2,6.325E1,1.5E0,1.3365E3,6.625E1,3.6025E2,5.225E1,7.535E2,8.25E0,1.5E0,2E1,1.075E1,5.475E1,1.25E0,1.15E1,4.0475E2,1.025E1,4.525E1,9.275E1,3.4375E2,1.325E2,3E0,2E0,2.275E1,8E0,2.5E0,7.125E1,2.9E1,5.8E1,2.1125E2,8.5E0,9E0,1.5E0,1.56E2,2.05E1,1.25E0,4.575E1,6E0,8.375E1,2.125E1,1.7E2,2.325E1,3.75E1,7.75E1,1.75E0,1E0,9.45E1,1.055E2,4E0,5.75E0,1.675E1,6.3325E2,5.75E2,8.1575E2,1.6625E2,1.825E1,5.3575E2,1.225E1,1.65E1,1.3275E2,8.7075E2,8.75E0,1E0,6E0,4.35E1,2E0,1.675E1,1.125E1,1.45575E3,1.73E2,3.5075E2,6E0,2.35E1,1.1675E3,1.2225E3,4.475E1,7.175E1,1.17425E3,1.6225E2,5.425E1,1.2E1,1.8575E2,1.745E2,4.575E1,6.5E0,7.5E1,6.785E2,1.25E0,7E0,1.15E1,8.5E0,7E0,3.75E0,3E0,5.175E1,4.75E0,6.75E0],"tree_param":{"num_deleted":"0","num_feature":"40","num_nodes":"199","size_leaf_vector":"1"}},{"base_weights":[3.669798E-4,1.1091044E0,-6.0955006E-1,1.3087507E0,-6.438899E-1,-6.755888E-1,1.256116E0,1.0030186E0,1.5585842E0,-9.988813E-1,1.6127539E0,-9.116891E-1,-1.5056668E-1,1.4791085E0,-9.009138E-3,1.064631E0,-1.1527752E0,1.5636411E0,-2.8807357E-2,-1.361278E0,6.50888E-2,1.065826E0,3.4343415E-1,-4.569404E-1,-1.1958052E0,8.956004E-2,-1.2859392E0,1.6592373E0,1.166095E0,-1.3694361E0,1.324223E0,-1.5887114E-1,1.1479617E0,2.4008308E-1,-1.3027586E0,1.4972653E0,1.691053E0,-3.6832654E-1,2.8054425E-1,-1.4058331E0,2.8254396E-1,-3.0494037E-1,1.2537082E0,1.2141085E0,-2.6363267E-2,-6.8876296E-1,5.4008865E-1,5.228801E-3,-1.2814054E0,-2.7789459E-2,1.3588423E0,-1.4309381E0,8.2472074E-1,3.358042E-1,7.053233E-1,2.375529E-1,1.3823792E0,2.2233112E-1,-1.6039952E0,-7.062497E-2,1.4251852E0,3.5307178E-1,-7.005275E-1,1.2558883E0,3.8021117E-2,-1.4374013E0,3.1248805E-1,1.518607E0,1.609839E-2,1.6956413E0,-1.663628E-1,1.3797877E0,-1.4477062E0,-5.891733E-1,1.3743453E0,3.118132E-1,-1.3979423E-1,5.251466E-1,2.924155E-1,-1.9768374E-1,-1.0343523E0,7.240066E-1,-1.6963769E0,3.2548776E-1,-2.3621136E-1,-1.3103038E0,1.4907138E0,5.0035566E-2,-1.4688097E0,6.7591965E-1,1.5525328E0,-1.5152797E0,3.668317E-1,1.1399834E0,-1.0484558E0,-1.4542465E-1,2.6731098E-1,-6.016434E-1,3.208927E-1,4.2758566E-1,1.5154386E0,-3.28262E-1,-1.02945246E-1,2.7454457E-1,1.558965E0,2.7822271E-2,-1.8052046E-1,2.1913715E-1,3.2066044E-1,-1.00540064E-1,1.738759E-1,-2.1997808E-2,-2.9469302E-1,3.075269E-1,2.1445392E-1,-6.5427266E-2,2.7718583E-1,3.4210986E-1,2.1744338E-1,3.2196936E-1,6.606372E-2,9.8384686E-2,-2.9606193E-1,-1.7546955E-1,2.4223454E-1,3.204378E-1,-2.138379E-2,-1.5313198E-1,2.4699605E-1,1.800005E-1,-6.6739716E-2,1.7854119E-2,-2.3392954E-1,-1.399315E-1,-2.7826577E-1,-2.712144E-2,2.5759345E-1,-3.5557437E-1,1.6752176E-2,1.5253189E-1,-8.0323435E-2,-3.0186656E-1,-1.9636492E-1,3.2563138E-1,-1.6882631E-1,-2.9265499E-2,1.3094006E-1,-3.2695296E-1,2.897034E-1,2.9090282E-1,-2.6517574E-2,-4.5715097E-2,3.1545147E-1,-3.069211E-1,2.7406695E-1,1.4588362E-1,-2.7783686E-1,1.1513901E-1,3.097832E-1,-2.539248E-1,-3.6834065E-2,-2.1411012E-1,2.4706745E-1,2.3317073E-1,-2.923841E-1,3.1746835E-1,1.5530272E-1,2.1804409E-1,-1.4982465E-1,3.2901552E-1,1.1158153E-1],"categories":[],"categories_nodes":[],"categories_segments":[],"categories_sizes":[],"default_left":[0,0,0,0,0,0,0,0,0,0,0,0,0,0,0,0,0,0,0,0,0,0,0,0,0,0,0,0,0,0,0,0,0,0,0,0,0,0,0,0,0,0,0,0,0,0,0,0,0,0,0,0,0,0,0,0,0,0,0,0,0,0,0,0,0,0,0,0,0,0,0,0,0,0,0,0,0,0,0,0,0,0,0,0,0,0,0,0,0,0,0,0,0,0,0,0,0,0,0,0,0,0,0,0,0,0,0,0,0,0,0,0,0,0,0,0,0,0,0,0,0,0,0,0,0,0,0,0,0,0,0,0,0,0,0,0,0,0,0,0,0,0,0,0,0,0,0,0,0,0,0,0,0,0,0,0,0,0,0,0,0,0,0,0,0,0,0,0,0,0,0],"id":1,"left_children":[1,3,5,7,9,11,13,15,17,19,21,23,25,27,29,31,33,35,37,39,41,43,-1,45,47,49,51,53,55,57,59,61,63,-1,65,67,69,-1,-1,71,-1,73,75,77,-1,79,81,83,85,87,89,91,93,-1,95,97,99,-1,101,-1,103,-1,105,107,109,111,-1,113,115,117,-1,119,121,123,125,-1,127,129,-1,131,133,135,137,-1,139,141,143,145,147,149,151,153,155,157,159,-1,-1,161,-1,163,165,-1,-1,167,169,-1,-1,-1,-1,-1,-1,-1,-1,-1,-1,-1,-1,-1,-1,-1,-1,-1,-1,-1,-1,-1,-1,-1,-1,-1,-1,-1,-1,-1,-1,-1,-1,-1,-1,-1,-1,-1,-1,-1,-1,-1,-1,-1,-1,-1,-1,-1,-1,-1,-1,-1,-1,-1,-1,-1,-1,-1,-1,-1,-1,-1,-1,-1,-1,-1,-1],"loss_changes":[9.759725E3,1.7933555E3,1.1479741E3,3.4967432E2,4.2165585E2,1.1146113E3,8.990863E1,2.7626245E2,2.034375E1,1.7502118E2,2.2618866E0,8.009082E2,7.6098444E2,1.33396E1,9.022207E1,2.0548657E2,2.2039871E1,1.8785645E1,2.59704E1,4.3818848E1,5.149983E1,2.6681824E0,0E0,5.5206946E2,3.9245215E2,3.432991E2,1.5030591E2,2.0162354E0,2.0220001E1,1.6109348E1,4.7583237E0,1.359824E2,2.2580664E2,0E0,2.3471016E1,5.2641113E1,1.131543E1,0E0,0E0,4.0911316E1,0E0,4.3497967E1,1.2041939E1,1.3959408E0,0E0,3.2853827E2,1.866753E2,1.0024284E2,2.8740576E2,2.3676004E2,2.475119E1,6.9744934E1,2.0067314E1,0E0,5.6466784E0,2.4524254E1,9.868774E0,0E0,8.59642E-2,0E0,3.2506866E0,0E0,1.736383E1,9.387671E1,7.600939E1,2.3785095E0,0E0,1.2299316E1,1.2055228E1,5.8901367E0,0E0,7.8471565E-1,2.1543945E1,4.110927E1,4.6419334E0,0E0,6.032651E0,1.8818719E0,0E0,2.2360811E2,1.3483936E2,2.0247382E2,5.1623306E0,0E0,3.71172E1,2.2910498E2,1.3321922E1,2.3795769E2,5.4739807E1,2.843749E1,7.018219E0,2.642041E1,1.4545519E1,5.5308304E0,7.4575424E-1,0E0,0E0,1.2910128E1,0E0,1.7771847E1,2.60672E0,0E0,0E0,3.9085374E0,9.0930176E-1,0E0,0E0,0E0,0E0,0E0,0E0,0E0,0E0,0E0,0E0,0E0,0E0,0E0,0E0,0E0,0E0,0E0,0E0,0E0,0E0,0E0,0E0,0E0,0E0,0E0,0E0,0E0,0E0,0E0,0E0,0E0,0E0,0E0,0E0,0E0,0E0,0E0,0E0,0E0,0E0,0E0,0E0,0E0,0E0,0E0,0E0,0E0,0E0,0E0,0E0,0E0,0E0,0E0,0E0,0E0,0E0,0E0,0E0,0E0,0E0,0E0,0E0,0E0,0E0,0E0,0E0],"parents":[2147483647,0,0,1,1,2,2,3,3,4,4,5,5,6,6,7,7,8,8,9,9,10,10,11,11,12,12,13,13,14,14,15,15,16,16,17,17,18,18,19,19,20,20,21,21,23,23,24,24,25,25,26,26,27,27,28,28,29,29,30,30,31,31,32,32,34,34,35,35,36,36,39,39,41,41,42,42,43,43,45,45,46,46,47,47,48,48,49,49,50,50,51,51,52,52,54,54,55,55,56,56,58,58,60,60,62,62,63,63,64,64,65,65,67,67,68,68,69,69,71,71,72,72,73,73,74,74,76,76,77,77,79,79,80,80,81,81,82,82,84,84,85,85,86,86,87,87,88,88,89,89,90,90,91,91,92,92,93,93,94,94,97,97,99,99,100,100,103,103,104,104],"right_children":[2,4,6,8,10,12,14,16,18,20,22,24,26,28,30,32,34,36,38,40,42,44,-1,46,48,50,52,54,56,58,60,62,64,-1,66,68,70,-1,-1,72,-1,74,76,78,-1,80,82,84,86,88,90,92,94,-1,96,98,100,-1,102,-1,104,-1,106,108,110,112,-1,114,116,118,-1,120,122,124,126,-1,128,130,-1,132,134,136,138,-1,140,142,144,146,148,150,152,154,156,158,160,-1,-1,162,-1,164,166,-1,-1,168,170,-1,-1,-1,-1,-1,-1,-1,-1,-1,-1,-1,-1,-1,-1,-1,-1,-1,-1,-1,-1,-1,-1,-1,-1,-1,-1,-1,-1,-1,-1,-1,-1,-1,-1,-1,-1,-1,-1,-1,-1,-1,-1,-1,-1,-1,-1,-1,-1,-1,-1,-1,-1,-1,-1,-1,-1,-1,-1,-1,-1,-1,-1,-1,-1,-1,-1],"split_conditions":[1E0,3E0,2E0,1E0,1E0,1.1E1,1.9E1,1E0,4.690919E1,1E0,2E0,6.714286E0,3E0,5E0,7.75E0,4E0,4E0,7E0,1E0,2.9E1,3E0,5E0,3.4343415E-1,1E0,1.3E1,2E0,2E0,3E0,1E1,4E0,7.785714E0,1E0,2E0,2.4008308E-1,1E0,2E0,9E0,-3.6832654E-1,2.8054425E-1,1.7E1,2.8254396E-1,1.9E1,7E0,5.9E1,-2.6363267E-2,3E0,1.4E1,1E0,1E0,2.38E2,1E0,1.8E1,1.3E1,3.358042E-1,8E0,1.2E1,2E0,2.2233112E-1,7E0,-7.062497E-2,2.1E1,3.5307178E-1,1E0,1E0,3.7E1,4E0,3.1248805E-1,2E0,1E0,5E0,-1.663628E-1,6.0882354E0,2E0,1.5E1,1.2857142E1,3.118132E-1,2E0,2.5768197E0,2.924155E-1,1E0,2E0,4.2E1,9E0,3.2548776E-1,6E0,1E0,1.7E1,1E0,4E0,3E0,3E0,6E0,2.6105263E1,1E0,3.3666668E1,-1.4542465E-1,2.6731098E-1,1E0,3.208927E-1,8.0625E0,4.69E2,-3.28262E-1,-1.02945246E-1,8E0,2E0,2.7822271E-2,-1.8052046E-1,2.1913715E-1,3.2066044E-1,-1.00540064E-1,1.738759E-1,-2.1997808E-2,-2.9469302E-1,3.075269E-1,2.1445392E-1,-6.5427266E-2,2.7718583E-1,3.4210986E-1,2.1744338E-1,3.2196936E-1,6.606372E-2,9.8384686E-2,-2.9606193E-1,-1.7546955E-1,2.4223454E-1,3.204378E-1,-2.138379E-2,-1.5313198E-1,2.4699605E-1,1.800005E-1,-6.6739716E-2,1.7854119E-2,-2.3392954E-1,-1.399315E-1,-2.7826577E-1,-2.712144E-2,2.5759345E-1,-3.5557437E-1,1.6752176E-2,1.5253189E-1,-8.0323435E-2,-3.0186656E-1,-1.9636492E-1,3.2563138E-1,-1.6882631E-1,-2.9265499E-2,1.3094006E-1,-3.2695296E-1,2.897034E-1,2.9090282E-1,-2.6517574E-2,-4.5715097E-2,3.1545147E-1,-3.069211E-1,2.7406695E-1,1.4588362E-1,-2.7783686E-1,1.1513901E-1,3.097832E-1,-2.539248E-1,-3.6834065E-2,-2.1411012E-1,2.4706745E-1,2.3317073E-1,-2.923841E-1,3.1746835E-1,1.5530272E-1,2.1804409E-1,-1.4982465E-1,3.2901552E-1,1.1158153E-1],"split_indices":[4,15,1,16,21,3,12,23,29,16,12,26,15,2,26,5,5,24,31,2,31,15,0,19,5,16,16,0,2,1,38,5,15,0,19,22,22,0,0,5,0,3,15,5,0,33,22,5,18,5,31,2,39,0,4,3,25,0,39,0,12,0,33,39,5,28,0,15,19,22,0,26,33,2,38,0,16,29,0,23,15,5,38,0,3,7,12,39,30,2,4,31,26,21,26,0,0,18,0,38,5,0,0,1,16,0,0,0,0,0,0,0,0,0,0,0,0,0,0,0,0,0,0,0,0,0,0,0,0,0,0,0,0,0,0,0,0,0,0,0,0,0,0,0,0,0,0,0,0,0,0,0,0,0,0,0,0,0,0,0,0,0,0,0,0,0,0,0,0,0,0],"split_type":[0,0,0,0,0,0,0,0,0,0,0,0,0,0,0,0,0,0,0,0,0,0,0,0,0,0,0,0,0,0,0,0,0,0,0,0,0,0,0,0,0,0,0,0,0,0,0,0,0,0,0,0,0,0,0,0,0,0,0,0,0,0,0,0,0,0,0,0,0,0,0,0,0,0,0,0,0,0,0,0,0,0,0,0,0,0,0,0,0,0,0,0,0,0,0,0,0,0,0,0,0,0,0,0,0,0,0,0,0,0,0,0,0,0,0,0,0,0,0,0,0,0,0,0,0,0,0,0,0,0,0,0,0,0,0,0,0,0,0,0,0,0,0,0,0,0,0,0,0,0,0,0,0,0,0,0,0,0,0,0,0,0,0,0,0,0,0,0,0,0,0],"sum_hessian":[1.4430384E4,5.120772E3,9.309611E3,4.5974297E3,5.2334235E2,8.991962E3,3.1764948E2,2.0696829E3,2.527747E3,4.5268765E2,7.0654686E1,6.202146E3,2.7898162E3,2.699063E2,4.7743156E1,2.0126672E3,5.7015675E1,2.5197349E3,8.011984E0,3.3746494E2,1.1522271E2,1.3123283E1,5.75314E1,2.3859175E3,3.8162285E3,2.3035464E3,4.8626968E2,1.6858844E2,1.0131787E2,2.3617134E1,2.4126022E1,1.2828082E2,1.8843864E3,2.996585E0,5.401909E1,1.6650642E3,8.5467084E2,3.4087772E0,4.6032066E0,3.3261578E2,4.849161E0,8.843534E1,2.6787363E1,1.1665239E1,1.4580449E0,1.9360657E3,4.4985187E2,2.539577E2,3.5622708E3,2.1094944E3,1.940519E2,4.553125E2,3.0957207E1,1.6441833E2,4.1701055E0,1.9537712E1,8.178016E1,1.7169061E0,2.1900227E1,1.2279367E0,2.2898085E1,2.7681898E1,1.0059892E2,1.7172734E3,1.6711293E2,5.207049E1,1.9485966E0,1.6413885E3,2.367566E1,8.534466E2,1.2242126E0,4.4526052E0,3.2816318E2,7.6188896E1,1.2246447E1,2.1875072E1,4.912289E0,3.9124901E0,7.752749E0,8.0034906E2,1.1357166E3,4.1629382E2,3.3558056E1,3.2157104E1,2.218006E2,3.5260403E3,3.6230377E1,2.0023207E3,1.07173836E2,4.3868412E1,1.5018349E2,4.3505905E2,2.0253437E1,2.6832598E1,4.124609E0,1.2290728E0,2.9410326E0,1.2452513E1,7.0852003E0,1.051821E1,7.126195E1,2.0684835E1,1.2153922E0,2.7028713E0,2.0195213E1,1.9574923E1,8.1023994E1,1.1781486E3,5.391248E2,1.0149511E2,6.561782E1,1.4843775E0,5.0586113E1,1.5719323E3,6.945631E1,1.9540607E1,4.1350513E0,8.3126697E2,2.217965E1,3.2140706E0,1.2385346E0,5.192052E0,3.2297113E2,6.611828E1,1.0070616E1,1.0543102E1,1.7033446E0,3.6800244E0,1.2322648E0,2.6903324E0,1.2221578E0,6.1862085E2,1.8172818E2,5.8767914E2,5.480375E2,1.652191E2,2.5107472E2,3.2090233E1,1.4678228E0,3.0997665E1,1.9080293E2,2.193426E3,1.3326144E3,3.450205E1,1.7283292E0,1.5120461E3,4.902745E2,1.01821266E2,5.3525667E0,2.194058E1,2.1927834E1,1.9433577E0,1.4824013E2,4.326298E2,2.429247E0,1.7271744E1,2.981694E0,1.2286369E1,1.4546228E1,2.910766E0,1.2138431E0,1.0252647E1,2.1998653E0,7.838526E0,2.6796846E0,6.389619E1,7.36576E0,1.4680724E0,1.2347989E0,1.8003206E1,2.1920068E0],"tree_param":{"num_deleted":"0","num_feature":"40","num_nodes":"171","size_leaf_vector":"1"}},{"base_weights":[9.882747E-4,9.44497E-1,-5.068788E-1,1.1137757E0,-5.458029E-1,5.332335E-1,-7.380419E-1,-1.06871165E-1,1.233297E0,-1.0986816E0,5.2594376E-1,9.7991025E-1,-2.014305E-1,-1.0761209E0,-2.6794985E-1,8.448003E-1,-5.1644784E-1,8.362641E-1,1.3574436E0,-1.19628E0,7.0373094E-1,-2.824256E-1,1.2472204E0,7.7520984E-1,1.4214426E0,3.4084117E-1,-9.298532E-1,-1.129797E0,1.0805424E0,8.746597E-2,-1.2274747E0,9.160922E-1,-6.6471833E-1,2.9897562E-1,-6.816474E-1,4.3886197E-1,1.238787E0,1.3652502E0,-1.437959E0,-1.2577507E0,9.5422983E-1,1.7831204E0,1.7383042E-1,-6.002313E-1,3.030001E-1,-1.1977213E-1,1.2990316E0,9.6058303E-1,-2.077528E-1,1.4483585E0,-6.970659E-1,-2.79226E-1,1.2402042E0,-1.3920902E0,-2.9795417E-1,1.4832501E0,-1.1702204E0,1.1399941E0,-4.1801998E-1,2.974549E-1,-1.1935225E0,-1.3668853E0,4.6808475E-1,7.840053E-1,1.220384E0,-2.4253504E-1,1.2054916E-1,-1.0489902E0,2.6347104E-1,1.0858982E0,-9.3079984E-1,1.2777793E0,2.5883067E-1,1.3720604E0,-1.4882627E0,-3.1709734E-1,-5.4805487E-2,6.924686E-1,-1.3092449E0,-4.0940987E-3,2.3446825E-1,1.1762861E-1,4.1078624E-1,-1.0273886E0,2.6822427E-1,2.7662328E-1,-9.138685E-1,1.4212695E0,6.036598E-1,8.209597E-1,1.5499164E0,-6.001666E-1,1.3330446E0,1.495061E0,4.0185794E-1,-2.7680078E-1,9.722997E-2,-2.9392084E-1,1.1599332E-1,1.4551398E0,6.7061764E-1,-1.4387621E0,2.4907856E-1,-7.653341E-1,6.644854E-1,1.5015837E0,5.8525402E-2,-1.2115682E0,9.932031E-1,1.5326067E0,9.6763074E-1,-2.538768E-1,1.8980606E-1,5.3107694E-2,1.3661937E0,-1.4417999E0,3.3427548E-1,5.206796E-1,-1.4087707E0,-1.0083669E-1,1.3726104E0,1.6585837E-1,-1.7804219E-1,2.6478288E-1,5.042934E-4,-2.2969519E-1,1.0053601E-1,2.3786354E-1,-3.7917607E-2,2.736832E-1,1.4435224E-1,5.8512855E-2,-2.948757E-1,2.807816E-1,2.1316099E-1,-2.3083413E-1,2.639784E-1,2.4602751E-1,2.9199508E-1,-1.1758849E-2,-3.4656677E-1,2.242531E-1,-4.6800148E-2,-2.6673666E-1,1.3591664E-1,-2.556725E-1,2.6736367E-2,-1.5477921E-1,1.7253733E-1,-2.072443E-1,2.3306997E-1,1.5406245E-1,2.930757E-1,-1.4008994E-1,2.2803877E-1,1.9104123E-1,-4.215761E-2,3.222821E-1,5.6434404E-2,-1.7940225E-2,-2.4437903E-1,3.0302295E-1,1.1699569E-1,3.027226E-1,-1.567639E-1,-1.4989729E-1,2.9646474E-1,-1.9844549E-2,2.2954197E-1,2.9902038E-1,-2.0919064E-1,2.3929654E-1,-4.834408E-2,-2.9686606E-1,1.296977E-1,-1.8757206E-1,2.973003E-1,2.4823923E-1,-2.1148507E-1,1.7561881E-1,3.108772E-1,-1.6405505E-1,-2.6888537E-1,3.4988627E-1,7.820915E-3,1.4076288E-1,3.179595E-1,3.0263154E-2,2.2275619E-1,4.2724453E-2,-2.7021208E-1,1.37201445E-2,2.867956E-1,-2.9829416E-1,2.5329468E-1,-1.3993593E-1,3.8668236E-1,-2.8563017E-1,1.2270733E-1,-1.287844E-1,2.7736676E-1,3.0461246E-2,2.9672626E-1],"categories":[],"categories_nodes":[],"categories_segments":[],"categories_sizes":[],"default_left":[0,0,0,0,0,0,0,0,0,0,0,0,0,0,0,0,0,0,0,0,0,0,0,0,0,0,0,0,0,0,0,0,0,0,0,0,0,0,0,0,0,0,0,0,0,0,0,0,0,0,0,0,0,0,0,0,0,0,0,0,0,0,0,0,0,0,0,0,0,0,0,0,0,0,0,0,0,0,0,0,0,0,0,0,0,0,0,0,0,0,0,0,0,0,0,0,0,0,0,0,0,0,0,0,0,0,0,0,0,0,0,0,0,0,0,0,0,0,0,0,0,0,0,0,0,0,0,0,0,0,0,0,0,0,0,0,0,0,0,0,0,0,0,0,0,0,0,0,0,0,0,0,0,0,0,0,0,0,0,0,0,0,0,0,0,0,0,0,0,0,0,0,0,0,0,0,0,0,0,0,0,0,0,0,0,0,0,0,0,0,0,0,0,0,0,0,0,0,0,0,0,0,0],"id":2,"left_children":[1,3,5,7,9,11,13,15,17,19,21,23,25,27,29,31,33,35,37,39,41,43,45,47,49,51,53,55,57,59,61,63,65,-1,67,69,71,73,75,77,79,81,83,85,-1,-1,87,89,91,93,95,97,99,101,103,105,107,109,111,113,115,117,119,121,123,-1,-1,125,127,129,131,133,135,137,139,-1,-1,141,143,-1,-1,-1,-1,145,-1,147,149,151,153,155,157,159,161,163,165,-1,-1,-1,167,169,171,173,-1,175,177,179,-1,181,183,185,187,-1,-1,189,191,193,-1,195,197,199,201,-1,-1,-1,-1,-1,-1,-1,-1,-1,-1,-1,-1,-1,-1,-1,-1,-1,-1,-1,-1,-1,-1,-1,-1,-1,-1,-1,-1,-1,-1,-1,-1,-1,-1,-1,-1,-1,-1,-1,-1,-1,-1,-1,-1,-1,-1,-1,-1,-1,-1,-1,-1,-1,-1,-1,-1,-1,-1,-1,-1,-1,-1,-1,-1,-1,-1,-1,-1,-1,-1,-1,-1,-1,-1,-1,-1,-1,-1,-1,-1,-1,-1],"loss_changes":[6.638741E3,1.2236353E3,2.1658757E3,6.353218E2,2.9398837E2,5.378117E2,1.1708882E3,1.5214299E2,1.9433008E2,5.8362E1,9.89987E1,9.0997375E1,2.4532951E2,4.973916E2,1.0518673E3,1.3252342E1,9.163664E1,1.5097717E2,6.785449E1,4.225351E1,9.657033E0,4.6946617E1,9.347488E0,1.27462555E2,1.9346558E1,1.990459E2,7.6980774E1,4.4353027E2,9.795258E0,6.059683E2,1.9769934E2,3.5692596E0,4.8132443E0,0E0,8.8012856E1,4.2479346E2,1.7629395E1,6.0563965E1,1.0930347E0,3.127069E1,1.9796238E0,6.138935E-1,1.9319891E1,1.9283884E1,0E0,0E0,6.5766296E0,4.7093384E1,6.829912E1,1.49348755E1,4.500729E0,9.977479E1,1.6847855E1,2.0595825E1,5.1435642E1,9.610596E-1,3.6969678E2,5.343338E0,6.701541E0,5.0527087E2,2.280929E2,6.165674E1,3.311507E1,6.9038353E0,4.0677834E0,0E0,0E0,2.8700226E1,3.0229622E1,3.247043E1,1.0281453E2,1.0582764E1,3.0370579E1,3.5695312E1,2.5724983E0,0E0,0E0,3.6122136E0,1.5240784E1,0E0,0E0,0E0,0E0,2.1735373E0,0E0,1.2364515E1,1.4233215E1,9.8591614E-1,1.116461E1,6.631534E1,8.2344055E0,2.8347717E1,2.2423668E0,1.4035461E1,1.9705149E1,0E0,0E0,0E0,3.5612152E1,1.2043182E1,2.0315609E1,1.5283386E1,0E0,3.1181332E1,3.859448E1,7.073059E-1,0E0,2.0905713E2,5.6068443E1,2.5858307E-1,8.518234E0,0E0,0E0,3.55516E2,3.1571106E1,4.123932E1,0E0,3.1451466E1,3.0431885E1,3.342863E1,3.13546E0,0E0,0E0,0E0,0E0,0E0,0E0,0E0,0E0,0E0,0E0,0E0,0E0,0E0,0E0,0E0,0E0,0E0,0E0,0E0,0E0,0E0,0E0,0E0,0E0,0E0,0E0,0E0,0E0,0E0,0E0,0E0,0E0,0E0,0E0,0E0,0E0,0E0,0E0,0E0,0E0,0E0,0E0,0E0,0E0,0E0,0E0,0E0,0E0,0E0,0E0,0E0,0E0,0E0,0E0,0E0,0E0,0E0,0E0,0E0,0E0,0E0,0E0,0E0,0E0,0E0,0E0,0E0,0E0,0E0,0E0,0E0,0E0,0E0,0E0,0E0,0E0,0E0,0E0,0E0,0E0,0E0,0E0],"parents":[2147483647,0,0,1,1,2,2,3,3,4,4,5,5,6,6,7,7,8,8,9,9,10,10,11,11,12,12,13,13,14,14,15,15,16,16,17,17,18,18,19,19,20,20,21,21,22,22,23,23,24,24,25,25,26,26,27,27,28,28,29,29,30,30,31,31,32,32,34,34,35,35,36,36,37,37,38,38,39,39,40,40,41,41,42,42,43,43,46,46,47,47,48,48,49,49,50,50,51,51,52,52,53,53,54,54,55,55,56,56,57,57,58,58,59,59,60,60,61,61,62,62,63,63,64,64,67,67,68,68,69,69,70,70,71,71,72,72,73,73,74,74,77,77,78,78,83,83,85,85,86,86,87,87,88,88,89,89,90,90,91,91,92,92,93,93,94,94,98,98,99,99,100,100,101,101,103,103,104,104,105,105,107,107,108,108,109,109,110,110,113,113,114,114,115,115,117,117,118,118,119,119,120,120],"right_children":[2,4,6,8,10,12,14,16,18,20,22,24,26,28,30,32,34,36,38,40,42,44,46,48,50,52,54,56,58,60,62,64,66,-1,68,70,72,74,76,78,80,82,84,86,-1,-1,88,90,92,94,96,98,100,102,104,106,108,110,112,114,116,118,120,122,124,-1,-1,126,128,130,132,134,136,138,140,-1,-1,142,144,-1,-1,-1,-1,146,-1,148,150,152,154,156,158,160,162,164,166,-1,-1,-1,168,170,172,174,-1,176,178,180,-1,182,184,186,188,-1,-1,190,192,194,-1,196,198,200,202,-1,-1,-1,-1,-1,-1,-1,-1,-1,-1,-1,-1,-1,-1,-1,-1,-1,-1,-1,-1,-1,-1,-1,-1,-1,-1,-1,-1,-1,-1,-1,-1,-1,-1,-1,-1,-1,-1,-1,-1,-1,-1,-1,-1,-1,-1,-1,-1,-1,-1,-1,-1,-1,-1,-1,-1,-1,-1,-1,-1,-1,-1,-1,-1,-1,-1,-1,-1,-1,-1,-1,-1,-1,-1,-1,-1,-1,-1,-1,-1,-1,-1],"split_conditions":[1E0,3E0,1E0,2E0,1E0,3E0,3E0,1E0,3E0,6E0,4E0,4E0,2E0,2E0,3E0,2E0,1E0,1E0,6.15E2,1E0,5E0,1.4E1,6E0,3E0,1E0,1.2E1,1E0,1E0,8E0,5.4E1,1E0,1.4E1,3.1622777E0,2.9897562E-1,1E0,3E0,2E0,2E0,4E0,2E0,1E0,3E0,1.1E1,4E0,3.030001E-1,-1.1977213E-1,6E0,1.4E1,2E0,2E0,1E0,3E0,5E0,2.3E1,1E0,1E0,2E0,1.5E1,1E0,1E0,1E0,2.9E1,1E0,7E0,6E0,-2.4253504E-1,1.2054916E-1,1E0,1.2E1,9E0,3E0,2E0,1E0,4E0,4E0,-3.1709734E-1,-5.4805487E-2,1E0,5E0,-4.0940987E-3,2.3446825E-1,1.1762861E-1,4.1078624E-1,1.4E1,2.6822427E-1,2E0,1E0,7E0,1.2E1,2E0,5E0,2E0,4.8E1,8E0,1E0,-2.7680078E-1,9.722997E-2,-2.9392084E-1,1.6E1,5E0,5E0,8E0,2.4907856E-1,2.2E1,3.2E2,5E0,5.8525402E-2,1.8E1,1E0,6E0,4E0,-2.538768E-1,1.8980606E-1,2E0,5E0,7E0,3.3427548E-1,4E0,2E0,1E0,1.1E1,1.6585837E-1,-1.7804219E-1,2.6478288E-1,5.042934E-4,-2.2969519E-1,1.0053601E-1,2.3786354E-1,-3.7917607E-2,2.736832E-1,1.4435224E-1,5.8512855E-2,-2.948757E-1,2.807816E-1,2.1316099E-1,-2.3083413E-1,2.639784E-1,2.4602751E-1,2.9199508E-1,-1.1758849E-2,-3.4656677E-1,2.242531E-1,-4.6800148E-2,-2.6673666E-1,1.3591664E-1,-2.556725E-1,2.6736367E-2,-1.5477921E-1,1.7253733E-1,-2.072443E-1,2.3306997E-1,1.5406245E-1,2.930757E-1,-1.4008994E-1,2.2803877E-1,1.9104123E-1,-4.215761E-2,3.222821E-1,5.6434404E-2,-1.7940225E-2,-2.4437903E-1,3.0302295E-1,1.1699569E-1,3.027226E-1,-1.567639E-1,-1.4989729E-1,2.9646474E-1,-1.9844549E-2,2.2954197E-1,2.9902038E-1,-2.0919064E-1,2.3929654E-1,-4.834408E-2,-2.9686606E-1,1.296977E-1,-1.8757206E-1,2.973003E-1,2.4823923E-1,-2.1148507E-1,1.7561881E-1,3.108772E-1,-1.6405505E-1,-2.6888537E-1,3.4988627E-1,7.820915E-3,1.4076288E-1,3.179595E-1,3.0263154E-2,2.2275619E-1,4.2724453E-2,-2.7021208E-1,1.37201445E-2,2.867956E-1,-2.9829416E-1,2.5329468E-1,-1.3993593E-1,3.8668236E-1,-2.8563017E-1,1.2270733E-1,-1.287844E-1,2.7736676E-1,3.0461246E-2,2.9672626E-1],"split_indices":[4,15,6,17,16,2,17,6,17,17,17,17,15,1,15,15,5,16,5,21,2,2,24,30,23,2,16,5,33,27,19,27,29,0,16,24,22,7,25,33,36,30,2,33,0,0,15,4,16,22,16,4,4,27,19,8,0,5,8,19,32,5,8,2,33,0,0,19,5,5,33,30,19,17,20,0,0,10,36,0,0,0,0,27,0,17,18,24,24,15,15,15,5,15,19,0,0,0,27,22,17,4,0,4,5,27,0,5,7,4,1,0,0,22,24,25,0,4,1,1,27,0,0,0,0,0,0,0,0,0,0,0,0,0,0,0,0,0,0,0,0,0,0,0,0,0,0,0,0,0,0,0,0,0,0,0,0,0,0,0,0,0,0,0,0,0,0,0,0,0,0,0,0,0,0,0,0,0,0,0,0,0,0,0,0,0,0,0,0,0,0,0,0,0,0,0,0,0,0,0,0,0,0],"split_type":[0,0,0,0,0,0,0,0,0,0,0,0,0,0,0,0,0,0,0,0,0,0,0,0,0,0,0,0,0,0,0,0,0,0,0,0,0,0,0,0,0,0,0,0,0,0,0,0,0,0,0,0,0,0,0,0,0,0,0,0,0,0,0,0,0,0,0,0,0,0,0,0,0,0,0,0,0,0,0,0,0,0,0,0,0,0,0,0,0,0,0,0,0,0,0,0,0,0,0,0,0,0,0,0,0,0,0,0,0,0,0,0,0,0,0,0,0,0,0,0,0,0,0,0,0,0,0,0,0,0,0,0,0,0,0,0,0,0,0,0,0,0,0,0,0,0,0,0,0,0,0,0,0,0,0,0,0,0,0,0,0,0,0,0,0,0,0,0,0,0,0,0,0,0,0,0,0,0,0,0,0,0,0,0,0,0,0,0,0,0,0,0,0,0,0,0,0,0,0,0,0,0,0],"sum_hessian":[1.3852468E4,4.84697E3,9.005497E3,4.3528013E3,4.9416928E2,1.6372821E3,7.3682153E3,3.8820865E2,3.9645925E3,3.259812E2,1.6818808E2,1.0180018E3,6.1928033E2,4.285149E3,3.083066E3,1.1648573E2,2.717229E2,9.4622076E2,3.0183716E3,3.0955545E2,1.6425756E1,7.959291E1,8.859516E1,6.974228E2,3.2057898E2,3.5530606E2,2.6397424E2,4.1815527E3,1.0359663E2,2.250406E3,8.326599E2,1.1160781E2,4.8779225E0,2.0013006E1,2.517099E2,4.7719092E2,4.6902985E2,3.0104758E3,7.8957043E0,3.0135654E2,8.198905E0,4.629866E0,1.179589E1,6.820036E1,1.13925495E1,2.1303475E0,8.646482E1,5.867859E2,1.1063694E2,3.1686945E2,3.7095413E0,2.1071667E2,1.4458939E2,1.517589E2,1.12215355E2,6.3158577E1,4.118394E3,9.9873665E1,3.722964E0,1.934119E3,3.1628705E2,7.695783E2,6.308162E1,8.03193E1,3.1288515E1,3.4357762E0,1.4421462E0,1.8118004E2,7.052986E1,3.2422998E2,1.5296095E2,4.5078915E2,1.824069E1,3.0038262E3,6.649682E0,6.6860666E0,1.2096373E0,7.432198E0,2.9392435E2,1.6649027E0,6.5340023E0,1.44139E0,3.1884763E0,5.872527E0,5.923363E0,1.7998602E1,5.020176E1,7.264993E1,1.3814884E1,4.763284E2,1.10457466E2,8.866581E1,2.197113E1,3.029222E2,1.3947224E1,2.2396019E0,1.4699396E0,5.1844753E1,1.5887192E2,1.0384744E2,4.0741947E1,1.4956673E2,2.1921785E0,7.567221E1,3.6543144E1,6.194358E1,1.2149987E0,4.0415898E3,7.680399E1,2.8061941E1,7.181172E1,2.338222E0,1.384742E0,1.5750605E3,3.5905853E2,2.915201E2,2.4766933E1,1.6458227E1,7.5312006E2,3.927025E1,2.3811373E1,7.8695305E1,1.6239947E0,2.8756819E1,2.5316951E0,1.7050775E2,1.0672282E1,2.2639645E1,4.7890217E1,1.8102371E2,1.4320627E2,4.719865E1,1.057623E2,2.7909775E2,1.716914E2,7.7853246E0,1.0455366E1,1.1547253E3,1.8491008E3,1.1527117E0,5.49697E0,4.9369683E0,2.4952295E0,2.9068192E2,3.2424314E0,4.7456903E0,1.1268367E0,6.330562E0,1.1668039E1,4.7885532E1,2.3162265E0,5.782086E0,6.686785E1,3.9378831E0,9.877001E0,4.2155212E2,5.47763E1,1.0508886E2,5.3686056E0,4.931795E1,3.934786E1,1.6845716E1,5.125414E0,3.0080917E2,2.113024E0,6.9004416E0,7.046782E0,1.3219904E2,2.667289E1,1.02610176E2,1.2372657E0,2.564748E1,1.5094468E1,1.4665387E2,2.912849E0,7.0829094E1,4.843114E0,2.7583815E1,8.95933E0,6.212798E0,5.573078E1,1.0262545E3,3.0153354E3,4.237976E1,3.442423E1,2.670353E0,2.5391588E1,1.1213672E1,6.0598053E1,1.4142422E3,1.608183E2,1.7925398E1,3.4113312E2,2.8671103E2,4.809102E0,9.101135E0,7.357092E0,7.462623E2,6.857724E0,2.9183685E1,1.0086563E1,2.183453E0,2.1627918E1],"tree_param":{"num_deleted":"0","num_feature":"40","num_nodes":"203","size_leaf_vector":"1"}},{"base_weights":[1.4743819E-3,8.252852E-1,-4.3079624E-1,3.0106458E-1,1.0758008E0,4.505605E-1,-6.2729454E-1,5.352656E-1,-2.4675784E-1,1.0940984E0,-1.2746212E0,5.944876E-1,-1.1818366E0,-9.193066E-1,-2.2751908E-1,-6.3281484E-2,8.408554E-1,-6.5916723E-1,1.0291547E0,8.9768386E-1,1.219432E0,1.6668862E-1,-2.831044E-1,8.4448314E-1,1.4053512E-1,-1.3481272E0,2.6520756E-1,-2.4479619E-1,-1.0499802E0,-4.3593743E-1,8.749144E-1,6.7604506E-1,-3.866685E-1,8.629604E-1,-1.1391122E0,2.158579E-1,-1.0848763E0,-1.3415707E0,1.1514492E0,1.2689351E0,6.8473613E-1,1.3280133E0,1.0441577E0,6.6604185E-1,1.2518036E0,-3.211698E-1,8.499399E-1,5.1745307E-2,-2.7291256E-1,1.2395483E0,-4.1027215E-1,-1.092252E0,7.996453E-1,-8.677635E-1,1.4294218E-1,1.0662156E0,-8.47206E-1,5.379794E-1,1.1742849E0,2.7202034E-1,-5.4699254E-1,1.197812E0,7.4592507E-1,-2.6414064E-1,-3.536367E-2,1.0208622E0,-1.2577587E-2,-4.9490234E-1,-1.2664065E0,-4.1855454E-1,-1.357561E-1,5.938981E-1,1.2828093E0,1.3239474E0,5.790003E-1,1.8813501E-1,1.0026214E0,1.3434004E0,-4.552033E-1,4.8197103E-1,1.316255E0,8.2392883E-1,-7.4603386E-2,1.2946751E0,2.7114502E-1,-6.098933E-1,7.1539676E-1,3.922663E-1,1.3434758E0,8.875721E-2,1.2655225E0,-7.5767314E-1,3.0043262E-1,-1.1239301E0,7.453013E-1,8.996769E-2,9.7894865E-1,-1.4375112E0,-6.663591E-1,5.117575E-1,-3.1489953E-1,-9.1202056E-1,1.1097478E0,9.4863945E-1,-2.7778473E-1,1.679702E-1,-9.664292E-3,2.4701796E-1,1.093815E-1,-1.3250668E-1,9.44745E-2,5.4681934E-2,2.46006E-1,1.315809E-1,2.3728113E-1,4.7385525E-2,2.4606828E-1,-1.0093067E-1,8.993293E-2,-4.5265104E-3,-2.1432188E-1,-2.7193734E-1,-8.043557E-2,6.0383588E-2,-9.920472E-2,-2.3941401E-2,2.4185014E-1,6.1355203E-2,2.64901E-1,6.911268E-2,2.6595363E-1,2.6686156E-2,2.5605687E-1,1.2315104E-1,-6.385692E-2,1.5689366E-1,2.7602214E-1,1.8219547E-1,2.7056113E-1,-2.672244E-1,1.8074413E-1,-5.0656546E-2,1.868046E-1,2.6669136E-1,-1.7342632E-1,1.8304667E-1,-9.204846E-2,-9.067313E-2,2.4935555E-1,2.630075E-1,-1.0508336E-1,-1.3151373E-1,2.5545898E-1,4.7183916E-2,-1.8409978E-1,-2.5715245E-2,2.4193732E-1,3.378887E-2,2.633909E-1,3.3050958E-2,2.7682552E-1,2.560751E-1,8.599993E-2,-2.0358482E-1,1.1400125E-2,1.0054063E-1,-2.338004E-1,-2.287313E-1,2.764445E-1,2.7372283E-1,-6.005129E-3,1.3643323E-1,-1.6665539E-1,-2.2339573E-2,2.0267034E-1,-1.079485E-1,-2.9137826E-1,-1.661535E-1,9.8028E-2,1.459871E-1,-2.795853E-1,-1.5614364E-1,1.1263678E-1,-3.3307874E-1,7.325693E-2,2.445354E-1,7.039469E-2,2.5332075E-1,-1.4732127E-1],"categories":[],"categories_nodes":[],"categories_segments":[],"categories_sizes":[],"default_left":[0,0,0,0,0,0,0,0,0,0,0,0,0,0,0,0,0,0,0,0,0,0,0,0,0,0,0,0,0,0,0,0,0,0,0,0,0,0,0,0,0,0,0,0,0,0,0,0,0,0,0,0,0,0,0,0,0,0,0,0,0,0,0,0,0,0,0,0,0,0,0,0,0,0,0,0,0,0,0,0,0,0,0,0,0,0,0,0,0,0,0,0,0,0,0,0,0,0,0,0,0,0,0,0,0,0,0,0,0,0,0,0,0,0,0,0,0,0,0,0,0,0,0,0,0,0,0,0,0,0,0,0,0,0,0,0,0,0,0,0,0,0,0,0,0,0,0,0,0,0,0,0,0,0,0,0,0,0,0,0,0,0,0,0,0,0,0,0,0,0,0,0,0,0,0,0,0,0,0,0,0,0,0,0,0,0,0,0,0],"id":3,"left_children":[1,3,5,7,9,11,13,15,17,19,21,23,25,27,29,31,33,35,37,39,41,-1,-1,43,45,47,-1,49,51,53,55,57,59,61,63,65,67,69,71,73,75,77,79,81,83,85,87,-1,-1,89,91,93,95,97,99,101,103,105,107,-1,109,111,113,-1,-1,115,117,119,121,-1,123,125,127,129,131,133,135,137,139,141,143,145,147,149,151,153,155,157,159,-1,161,163,165,167,169,171,173,175,177,179,181,183,185,187,-1,-1,-1,-1,-1,-1,-1,-1,-1,-1,-1,-1,-1,-1,-1,-1,-1,-1,-1,-1,-1,-1,-1,-1,-1,-1,-1,-1,-1,-1,-1,-1,-1,-1,-1,-1,-1,-1,-1,-1,-1,-1,-1,-1,-1,-1,-1,-1,-1,-1,-1,-1,-1,-1,-1,-1,-1,-1,-1,-1,-1,-1,-1,-1,-1,-1,-1,-1,-1,-1,-1,-1,-1,-1,-1,-1,-1,-1,-1,-1,-1,-1,-1,-1,-1],"loss_changes":[4.6450283E3,5.89187E2,1.4818645E3,1.8654147E2,1.3200879E2,3.6726166E2,8.1646533E2,1.8627518E2,2.2999753E2,7.310425E1,8.285255E0,1.6266962E2,5.4646484E1,3.560437E2,6.79185E2,8.275676E1,3.0485016E1,1.2314583E2,3.2521965E1,9.22525E1,3.357788E1,0E0,0E0,6.638464E1,1.6751764E2,3.505371E0,0E0,1.6196857E2,2.6562036E2,6.2137683E2,1.5575888E2,6.6160088E0,6.8146225E1,2.5253479E1,1.1423101E0,2.0024683E1,2.3163422E1,4.8818417E0,6.718994E0,1.54852295E1,1.1832059E2,3.1637573E1,1.0758374E2,7.551318E1,1.1445679E1,9.322337E1,4.5006027E1,0E0,0E0,8.062744E-1,1.464336E2,1.9356177E2,9.612556E0,1.6239587E2,1.7960588E2,3.7482513E1,4.7578465E1,1.496862E1,1.6436958E-1,0E0,2.636081E1,4.7608795E0,1.84906E1,0E0,0E0,3.6607475E0,1.9733074E1,1.4658304E1,1.3095398E1,0E0,6.6356045E-1,9.514787E0,2.9227753E0,1.7946167E0,1.0264975E1,6.4038666E1,3.6591553E1,3.328125E0,1.3681878E1,7.744962E1,1.9039124E1,6.279071E1,5.776821E1,1.0644562E1,1.3004009E1,6.4064606E1,2.8524181E1,2.166755E1,4.3970795E0,0E0,2.3807526E-1,8.444798E1,5.8587406E1,1.6250488E2,2.7447548E1,9.577308E0,2.392887E0,5.6674194E0,2.007431E2,2.4640642E2,1.9462178E2,9.920268E0,3.5068848E1,7.156418E0,0E0,0E0,0E0,0E0,0E0,0E0,0E0,0E0,0E0,0E0,0E0,0E0,0E0,0E0,0E0,0E0,0E0,0E0,0E0,0E0,0E0,0E0,0E0,0E0,0E0,0E0,0E0,0E0,0E0,0E0,0E0,0E0,0E0,0E0,0E0,0E0,0E0,0E0,0E0,0E0,0E0,0E0,0E0,0E0,0E0,0E0,0E0,0E0,0E0,0E0,0E0,0E0,0E0,0E0,0E0,0E0,0E0,0E0,0E0,0E0,0E0,0E0,0E0,0E0,0E0,0E0,0E0,0E0,0E0,0E0,0E0,0E0,0E0,0E0,0E0,0E0,0E0,0E0,0E0,0E0,0E0,0E0,0E0,0E0,0E0],"parents":[2147483647,0,0,1,1,2,2,3,3,4,4,5,5,6,6,7,7,8,8,9,9,10,10,11,11,12,12,13,13,14,14,15,15,16,16,17,17,18,18,19,19,20,20,23,23,24,24,25,25,27,27,28,28,29,29,30,30,31,31,32,32,33,33,34,34,35,35,36,36,37,37,38,38,39,39,40,40,41,41,42,42,43,43,44,44,45,45,46,46,49,49,50,50,51,51,52,52,53,53,54,54,55,55,56,56,57,57,58,58,60,60,61,61,62,62,65,65,66,66,67,67,68,68,70,70,71,71,72,72,73,73,74,74,75,75,76,76,77,77,78,78,79,79,80,80,81,81,82,82,83,83,84,84,85,85,86,86,87,87,88,88,90,90,91,91,92,92,93,93,94,94,95,95,96,96,97,97,98,98,99,99,100,100,101,101,102,102,103,103],"right_children":[2,4,6,8,10,12,14,16,18,20,22,24,26,28,30,32,34,36,38,40,42,-1,-1,44,46,48,-1,50,52,54,56,58,60,62,64,66,68,70,72,74,76,78,80,82,84,86,88,-1,-1,90,92,94,96,98,100,102,104,106,108,-1,110,112,114,-1,-1,116,118,120,122,-1,124,126,128,130,132,134,136,138,140,142,144,146,148,150,152,154,156,158,160,-1,162,164,166,168,170,172,174,176,178,180,182,184,186,188,-1,-1,-1,-1,-1,-1,-1,-1,-1,-1,-1,-1,-1,-1,-1,-1,-1,-1,-1,-1,-1,-1,-1,-1,-1,-1,-1,-1,-1,-1,-1,-1,-1,-1,-1,-1,-1,-1,-1,-1,-1,-1,-1,-1,-1,-1,-1,-1,-1,-1,-1,-1,-1,-1,-1,-1,-1,-1,-1,-1,-1,-1,-1,-1,-1,-1,-1,-1,-1,-1,-1,-1,-1,-1,-1,-1,-1,-1,-1,-1,-1,-1,-1,-1,-1],"split_conditions":[1E0,3E0,1E0,4E0,1E0,8E0,3E0,2E0,1E0,4E0,4.75E0,2E0,3E0,1.2E1,1E0,1E0,1E0,2.2E1,4E0,2.1E1,4E0,1.6668862E-1,-2.831044E-1,4E0,9E0,1E0,2.6520756E-1,1E0,2E0,1E1,1.5E1,3.0230596E0,1E0,9E0,9.5E0,1E0,1E0,2.5E0,1E0,2E0,1E0,4E0,1.1E1,3.2E1,2E0,1E0,1.4E1,5.1745307E-2,-2.7291256E-1,4E0,2E0,2E0,4E0,5E0,5E0,4E0,1.8764706E1,2E0,2E0,2.7202034E-1,4.004997E0,5E0,3.4E1,-2.6414064E-1,-3.536367E-2,1.2E1,1.2857142E1,6E0,1.9E1,-4.1855454E-1,5.196152E0,8E0,5E0,4E0,8.375E0,5E0,1E0,5E0,1E0,1E0,2E0,1E0,1E0,1E0,1E0,7.6666665E0,1E0,1E0,2E0,8.875721E-2,1E0,5E0,1E0,1E0,1E0,5E0,3E0,1E0,6E0,1.7533785E1,5E0,1E0,1E0,1E0,-2.7778473E-1,1.679702E-1,-9.664292E-3,2.4701796E-1,1.093815E-1,-1.3250668E-1,9.44745E-2,5.4681934E-2,2.46006E-1,1.315809E-1,2.3728113E-1,4.7385525E-2,2.4606828E-1,-1.0093067E-1,8.993293E-2,-4.5265104E-3,-2.1432188E-1,-2.7193734E-1,-8.043557E-2,6.0383588E-2,-9.920472E-2,-2.3941401E-2,2.4185014E-1,6.1355203E-2,2.64901E-1,6.911268E-2,2.6595363E-1,2.6686156E-2,2.5605687E-1,1.2315104E-1,-6.385692E-2,1.5689366E-1,2.7602214E-1,1.8219547E-1,2.7056113E-1,-2.672244E-1,1.8074413E-1,-5.0656546E-2,1.868046E-1,2.6669136E-1,-1.7342632E-1,1.8304667E-1,-9.204846E-2,-9.067313E-2,2.4935555E-1,2.630075E-1,-1.0508336E-1,-1.3151373E-1,2.5545898E-1,4.7183916E-2,-1.8409978E-1,-2.5715245E-2,2.4193732E-1,3.378887E-2,2.633909E-1,3.3050958E-2,2.7682552E-1,2.560751E-1,8.599993E-2,-2.0358482E-1,1.1400125E-2,1.0054063E-1,-2.338004E-1,-2.287313E-1,2.764445E-1,2.7372283E-1,-6.005129E-3,1.3643323E-1,-1.6665539E-1,-2.2339573E-2,2.0267034E-1,-1.079485E-1,-2.9137826E-1,-1.661535E-1,9.8028E-2,1.459871E-1,-2.795853E-1,-1.5614364E-1,1.1263678E-1,-3.3307874E-1,7.325693E-2,2.445354E-1,7.039469E-2,2.5332075E-1,-1.4732127E-1],"split_indices":[4,17,6,33,14,21,17,17,19,17,26,2,17,5,19,6,14,5,24,5,2,0,0,17,3,1,0,5,1,3,38,29,5,5,26,6,6,29,31,2,31,22,2,5,22,19,2,0,0,3,17,0,1,3,33,3,26,33,31,0,29,3,5,0,0,3,38,24,3,0,29,2,24,26,26,24,19,3,2,31,7,22,19,14,19,38,31,21,12,0,8,4,14,18,7,33,24,33,17,29,17,35,14,14,0,0,0,0,0,0,0,0,0,0,0,0,0,0,0,0,0,0,0,0,0,0,0,0,0,0,0,0,0,0,0,0,0,0,0,0,0,0,0,0,0,0,0,0,0,0,0,0,0,0,0,0,0,0,0,0,0,0,0,0,0,0,0,0,0,0,0,0,0,0,0,0,0,0,0,0,0,0,0,0,0,0,0,0,0],"split_type":[0,0,0,0,0,0,0,0,0,0,0,0,0,0,0,0,0,0,0,0,0,0,0,0,0,0,0,0,0,0,0,0,0,0,0,0,0,0,0,0,0,0,0,0,0,0,0,0,0,0,0,0,0,0,0,0,0,0,0,0,0,0,0,0,0,0,0,0,0,0,0,0,0,0,0,0,0,0,0,0,0,0,0,0,0,0,0,0,0,0,0,0,0,0,0,0,0,0,0,0,0,0,0,0,0,0,0,0,0,0,0,0,0,0,0,0,0,0,0,0,0,0,0,0,0,0,0,0,0,0,0,0,0,0,0,0,0,0,0,0,0,0,0,0,0,0,0,0,0,0,0,0,0,0,0,0,0,0,0,0,0,0,0,0,0,0,0,0,0,0,0,0,0,0,0,0,0,0,0,0,0,0,0,0,0,0,0,0,0],"sum_hessian":[1.3041833E4,4.487932E3,8.553901E3,1.4519115E3,3.0360208E3,1.5591829E3,6.9947183E3,1.01710785E3,4.3480365E2,3.0130986E3,2.2922018E1,1.433434E3,1.2574887E2,4.0414104E3,2.9533079E3,3.4404086E2,6.73067E2,3.289587E2,1.05844955E2,1.1769001E3,1.8361986E3,1.1281561E0,2.1793861E1,9.2381885E2,5.0961514E2,1.18362976E2,7.3858986E0,6.563481E2,3.3850625E3,2.4842563E3,4.6905157E2,1.04360855E2,2.3968002E2,6.6619354E2,6.873437E0,1.0782416E2,2.2113454E2,4.703124E0,1.0114183E2,4.27187E2,7.497131E2,1.1297491E3,7.064494E2,6.442273E2,2.7959152E2,3.090331E2,2.0058205E2,1.0491458E0,1.1731383E2,6.518028E1,5.911678E2,3.3098281E3,7.523434E1,1.4225669E3,1.0616895E3,4.2249924E2,4.6552338E1,8.334511E1,2.101574E1,1.952011E1,2.2015991E2,1.7014743E2,4.9604614E2,5.4689574E0,1.4044795E0,2.3067078E1,8.475708E1,5.2908375E1,1.6822617E2,2.4446077E0,2.2585163E0,2.0338259E1,8.080357E1,3.947893E2,3.239769E1,2.9322626E2,4.5648682E2,1.1203286E3,9.420501E0,2.3130852E2,4.751409E2,5.309332E2,1.1329408E2,2.6757376E2,1.2017736E1,2.4203008E2,6.700304E1,1.0500341E2,9.5578636E1,2.6319456E0,6.2548332E1,3.970291E2,1.9413869E2,3.2541177E3,5.5710308E1,1.5477316E1,5.9757023E1,3.6993365E2,1.0526333E3,5.8794855E2,4.7374088E2,8.667565E0,4.138317E2,1.0614174E1,3.5938164E1,5.4732346E1,2.8612764E1,1.827581E1,2.7399294E0,1.980606E2,2.2099314E1,6.0498724E0,1.6409755E2,4.1550922E2,8.053693E1,5.3134766E0,1.7753601E1,4.1009277E1,4.37478E1,2.9659351E1,2.3249023E1,1.513202E2,1.6905956E1,1.0928364E0,1.1656799E0,9.790263E0,1.0547995E1,3.6528747E0,7.71507E1,2.691893E0,3.920974E2,2.0538542E1,1.1859149E1,1.5900972E2,1.3421655E2,2.9124994E2,1.6523691E2,2.593156E1,1.0943971E3,5.725646E0,3.694855E0,8.823526E1,1.4307326E2,4.7181302E2,3.3278866E0,4.9595795E2,3.4975277E1,8.85647E1,2.4729387E1,2.6488785E2,2.6859305E0,6.42951E0,5.588226E0,6.507208E1,1.7695798E2,2.5020971E1,4.1982067E1,8.552978E1,1.9473637E1,3.3566704E0,9.222196E1,6.093271E1,1.615624E0,3.00715E2,9.631414E1,1.7122687E2,2.2911814E1,3.2292434E3,2.4874308E1,3.0458464E1,2.5251844E1,9.588237E0,5.889079E0,1.7586119E0,5.799841E1,8.426601E0,3.6150705E2,9.2186255E2,1.3077068E2,5.282183E2,5.973024E1,3.0960693E2,1.6413396E2,5.262992E0,3.4045742E0,3.5962427E2,5.4207405E1,9.138399E0,1.4757739E0],"tree_param":{"num_deleted":"0","num_feature":"40","num_nodes":"189","size_leaf_vector":"1"}},{"base_weights":[1.890287E-3,6.9791716E-1,-2.1336886E-1,9.0074134E-1,-5.8192335E-2,-5.4948425E-1,1.5552361E-1,7.0271724E-1,1.1238208E0,1.916754E-1,-1.1096607E0,-2.4005803E-1,-7.618852E-1,3.9171177E-1,-5.733344E-1,8.82148E-1,3.6180592E-1,5.1481795E-1,1.1442744E0,4.0245306E-1,-8.1658185E-1,8.815519E-1,-1.2210689E0,1.6660426E-3,-8.4003216E-1,-7.978535E-1,6.677317E-1,6.5077406E-1,5.409324E-2,-8.0322427E-1,9.877328E-1,6.602388E-1,1.0693338E0,-2.2542684E-1,8.666226E-1,2.4782434E-1,2.918288E-1,1.0112119E0,1.1956968E0,1.2793484E-1,9.3869644E-1,-9.001391E-1,2.569348E-1,2.1860445E-1,-2.7961805E-2,-1.2561458E0,2.4530652E-1,1.8660505E-1,-7.737694E-1,-1.012717E0,1.5780029E-1,-6.037263E-1,-1.0688872E0,-4.594811E-2,8.85569E-1,7.455366E-1,-2.1999024E-1,-1.8228967E-1,5.7992977E-1,3.9609354E-2,-1.0169958E0,1.2121795E0,-3.651589E-1,8.1121504E-1,2.2334829E-1,1.1683301E0,8.423845E-1,6.6900086E-1,-6.1046314E-1,9.511985E-1,-1.1486064E0,9.769949E-1,1.5331091E-1,1.0420102E0,-1.3737458E0,1.0546976E0,1.236822E0,-2.6804654E-4,1.2504678E0,1.0617722E0,2.4875546E-1,2.2143267E-1,-9.442725E-1,-2.5386044E-1,-4.7964773E-1,-1.3970213E-1,2.1198587E-1,-1.2984799E0,3.0232772E-1,-9.995308E-1,1.0497894E0,-1.051292E0,1.525619E0,-2.2786377E-1,1.0967723E0,-7.4694556E-1,1.1369174E0,8.855002E-1,-1.0887576E0,1.1342041E0,-7.497473E-1,1.2973721E0,5.042152E-1,3.177087E-1,9.1440344E-1,1.184094E-1,-1.2223665E0,1.7444351E-1,-5.292299E-1,7.0390624E-1,-8.917835E-1,-5.0317204E-1,5.185325E-1,-1.0866138E0,7.298337E-1,1.2528266E0,3.9990246E-1,2.884864E-1,-1.060544E0,6.337923E-2,1.7629614E-1,-6.781068E-2,1.07539155E-1,2.3526274E-1,-2.190136E-2,2.4633634E-1,1.1967035E-1,1.4709093E-1,-2.0073693E-1,-1.5604703E-1,2.2931199E-1,8.218398E-2,2.2885053E-1,1.21182516E-1,-2.954452E-1,2.2260332E-1,5.176382E-2,-3.0928329E-2,8.532831E-2,2.246977E-1,1.6613905E-1,-3.9867008E-1,4.1045643E-2,2.371699E-1,1.5104899E-1,2.561472E-1,2.2717972E-1,-3.4699548E-2,1.7253208E-1,2.7092457E-1,9.81613E-2,2.2129522E-1,-1.4947298E-1,-1.3006173E-1,2.2117977E-1,2.0134357E-1,-1.9725397E-1,-1.5690432E-1,2.0072542E-2,-2.7807137E-1,3.5107243E-1,2.19135E-2,2.016572E-1,-2.1076213E-1,3.5207972E-1,2.4637042E-1,-1.8595533E-1,-1.4633557E-1,-2.4283174E-1,3.5714728E-1,1.9419214E-2,-1.5397602E-1,1.1742449E-1,2.527934E-1,-1.6197857E-1,-1.1075856E-1,-2.2240995E-1,2.8162548E-1,-1.8835212E-1,-2.3389494E-1,3.195098E-1,-2.209438E-1,2.1026914E-1,2.6383695E-1,4.968674E-2,-2.1571289E-1,1.1816875E-1,2.8698444E-1,6.305175E-2,-1.1959203E-2,2.4680665E-1,1.13776386E-1,-2.7351055E-1,1.350414E-1,2.194531E-1,-8.929979E-2,1.0997715E-1,1.45634E-1,-2.5635257E-1,-1.1129639E-1,8.956224E-2,-1.2059863E-1,1.8357964E-1,8.399873E-2,2.6311937E-1,2.3196109E-1,-2.5443298E-1,-1.3162538E-1,2.798358E-1,2.0668845E-1,-6.9168836E-2,-2.2478949E-1,1.5452348E-1,1.8548147E-1,-3.2572255E-1,1.6126029E-1,2.608175E-1,1.6724218E-1,-1.1142158E-1,-1.208157E-2,-2.3444112E-1],"categories":[],"categories_nodes":[],"categories_segments":[],"categories_sizes":[],"default_left":[0,0,0,0,0,0,0,0,0,0,0,0,0,0,0,0,0,0,0,0,0,0,0,0,0,0,0,0,0,0,0,0,0,0,0,0,0,0,0,0,0,0,0,0,0,0,0,0,0,0,0,0,0,0,0,0,0,0,0,0,0,0,0,0,0,0,0,0,0,0,0,0,0,0,0,0,0,0,0,0,0,0,0,0,0,0,0,0,0,0,0,0,0,0,0,0,0,0,0,0,0,0,0,0,0,0,0,0,0,0,0,0,0,0,0,0,0,0,0,0,0,0,0,0,0,0,0,0,0,0,0,0,0,0,0,0,0,0,0,0,0,0,0,0,0,0,0,0,0,0,0,0,0,0,0,0,0,0,0,0,0,0,0,0,0,0,0,0,0,0,0,0,0,0,0,0,0,0,0,0,0,0,0,0,0,0,0,0,0,0,0,0,0,0,0,0,0,0,0,0,0,0,0,0,0,0,0,0,0,0,0,0,0,0,0,0,0,0,0,0,0],"id":4,"left_children":[1,3,5,7,9,11,13,15,17,19,21,23,25,27,29,31,33,35,37,39,41,43,45,47,49,51,53,55,57,59,61,63,65,67,69,-1,71,73,75,77,79,81,-1,-1,-1,83,85,87,89,91,93,95,97,99,101,103,105,107,109,111,113,115,117,119,121,123,125,127,129,131,133,135,137,139,141,143,145,147,149,151,153,-1,155,-1,157,-1,-1,159,161,163,165,167,169,171,173,175,177,179,181,183,185,187,189,191,193,195,197,199,201,203,205,207,209,211,213,215,217,-1,219,-1,-1,-1,-1,-1,-1,-1,-1,-1,-1,-1,-1,-1,-1,-1,-1,-1,-1,-1,-1,-1,-1,-1,-1,-1,-1,-1,-1,-1,-1,-1,-1,-1,-1,-1,-1,-1,-1,-1,-1,-1,-1,-1,-1,-1,-1,-1,-1,-1,-1,-1,-1,-1,-1,-1,-1,-1,-1,-1,-1,-1,-1,-1,-1,-1,-1,-1,-1,-1,-1,-1,-1,-1,-1,-1,-1,-1,-1,-1,-1,-1,-1,-1,-1,-1,-1,-1,-1,-1,-1,-1,-1,-1,-1,-1,-1,-1,-1,-1,-1,-1,-1],"loss_changes":[1.8296741E3,4.424342E2,1.156586E3,9.9690186E1,1.6075833E2,3.2058936E2,7.658728E2,7.355127E1,1.2713623E1,1.0543867E2,2.7137512E1,2.8832785E2,1.493263E2,2.93818E2,3.9158173E2,3.2130005E1,1.2414595E2,5.5367937E0,5.8552246E0,6.0197945E1,1.6229156E1,1.6226897E0,6.0521393E0,2.0351492E2,9.854025E1,1.4789124E2,1.11658325E1,1.5701978E2,1.8155426E2,1.7115234E2,4.3022324E1,2.3849136E1,8.613434E0,6.724623E1,3.9449356E1,0E0,2.6244996E0,2.304535E1,2.9816895E0,3.9168316E1,1.1503326E1,8.411896E0,0E0,0E0,0E0,5.070343E-1,3.3894765E0,1.9731453E2,1.1355649E2,4.9274628E1,3.1065704E1,4.1148877E2,4.6667236E1,1.5539455E1,7.9635353E0,1.2358087E2,6.3691E1,1.2482593E2,8.3272354E1,5.045896E1,9.292523E1,3.4776154E0,2.7576464E1,9.111694E0,1.6967375E1,3.1368713E0,1.1929459E1,7.2832584E0,4.152084E1,2.211438E1,6.3825083E0,1.7396021E-1,2.212527E0,4.0782776E0,4.5012817E0,5.926407E0,1.0557861E0,3.6813576E1,1.5424843E0,1.0313187E1,1.7892048E1,0E0,7.703781E0,0E0,6.84776E-1,0E0,0E0,2.573468E1,1.4465479E2,3.8361664E1,1.2171425E1,2.4105896E1,2.6862736E0,2.746365E1,8.976587E0,1.0675842E2,7.214801E1,2.0007149E1,4.0972534E1,8.19993E-1,5.7860985E0,3.025978E0,1.24746E1,2.0682178E2,5.3007324E1,3.460581E1,6.4215164E0,9.968573E1,5.5118668E1,7.2095474E1,2.9282988E1,2.7753304E1,4.623597E1,5.1467102E1,1.5318982E1,1.5645752E0,3.4770615E0,0E0,1.6647682E0,0E0,0E0,0E0,0E0,0E0,0E0,0E0,0E0,0E0,0E0,0E0,0E0,0E0,0E0,0E0,0E0,0E0,0E0,0E0,0E0,0E0,0E0,0E0,0E0,0E0,0E0,0E0,0E0,0E0,0E0,0E0,0E0,0E0,0E0,0E0,0E0,0E0,0E0,0E0,0E0,0E0,0E0,0E0,0E0,0E0,0E0,0E0,0E0,0E0,0E0,0E0,0E0,0E0,0E0,0E0,0E0,0E0,0E0,0E0,0E0,0E0,0E0,0E0,0E0,0E0,0E0,0E0,0E0,0E0,0E0,0E0,0E0,0E0,0E0,0E0,0E0,0E0,0E0,0E0,0E0,0E0,0E0,0E0,0E0,0E0,0E0,0E0,0E0,0E0,0E0,0E0,0E0,0E0,0E0,0E0,0E0,0E0,0E0,0E0,0E0,0E0,0E0],"parents":[2147483647,0,0,1,1,2,2,3,3,4,4,5,5,6,6,7,7,8,8,9,9,10,10,11,11,12,12,13,13,14,14,15,15,16,16,17,17,18,18,19,19,20,20,21,21,22,22,23,23,24,24,25,25,26,26,27,27,28,28,29,29,30,30,31,31,32,32,33,33,34,34,36,36,37,37,38,38,39,39,40,40,41,41,45,45,46,46,47,47,48,48,49,49,50,50,51,51,52,52,53,53,54,54,55,55,56,56,57,57,58,58,59,59,60,60,61,61,62,62,63,63,64,64,65,65,66,66,67,67,68,68,69,69,70,70,71,71,72,72,73,73,74,74,75,75,76,76,77,77,78,78,79,79,80,80,82,82,84,84,87,87,88,88,89,89,90,90,91,91,92,92,93,93,94,94,95,95,96,96,97,97,98,98,99,99,100,100,101,101,102,102,103,103,104,104,105,105,106,106,107,107,108,108,109,109,110,110,111,111,112,112,113,113,114,114,115,115,116,116,118,118],"right_children":[2,4,6,8,10,12,14,16,18,20,22,24,26,28,30,32,34,36,38,40,42,44,46,48,50,52,54,56,58,60,62,64,66,68,70,-1,72,74,76,78,80,82,-1,-1,-1,84,86,88,90,92,94,96,98,100,102,104,106,108,110,112,114,116,118,120,122,124,126,128,130,132,134,136,138,140,142,144,146,148,150,152,154,-1,156,-1,158,-1,-1,160,162,164,166,168,170,172,174,176,178,180,182,184,186,188,190,192,194,196,198,200,202,204,206,208,210,212,214,216,218,-1,220,-1,-1,-1,-1,-1,-1,-1,-1,-1,-1,-1,-1,-1,-1,-1,-1,-1,-1,-1,-1,-1,-1,-1,-1,-1,-1,-1,-1,-1,-1,-1,-1,-1,-1,-1,-1,-1,-1,-1,-1,-1,-1,-1,-1,-1,-1,-1,-1,-1,-1,-1,-1,-1,-1,-1,-1,-1,-1,-1,-1,-1,-1,-1,-1,-1,-1,-1,-1,-1,-1,-1,-1,-1,-1,-1,-1,-1,-1,-1,-1,-1,-1,-1,-1,-1,-1,-1,-1,-1,-1,-1,-1,-1,-1,-1,-1,-1,-1,-1,-1,-1,-1],"split_conditions":[1E0,2E0,1E1,1E1,5E0,6.6666665E0,2E0,2E0,4E0,6E0,1E0,2E0,1E0,1E0,1E0,1E0,1E0,1E0,1.2E1,8E0,2.8E1,3.5E1,1.45E1,1E0,1E0,2E1,1E0,1E1,3.5E1,4E0,1.7E1,1E1,1E0,5.818182E0,2E0,2.4782434E-1,7E0,8E0,1.8E1,2E0,5E0,4E0,2.569348E-1,2.1860445E-1,-2.7961805E-2,6.6E1,2E0,4E0,2E0,4.3E1,8E0,1.6E1,4E0,2.1E1,4.19E2,1.2E1,3.3E1,2E0,2.4222221E1,1.4E1,2E0,8E0,9E0,4E0,1.1E1,2.1E1,5.75E0,1E1,3E0,1E1,1E0,8.6E0,1.4E1,2E0,3.2E1,1E0,3E0,1.6E1,1E0,1E0,1E1,2.2143267E-1,1.8E1,-2.5386044E-1,7.090909E0,-1.3970213E-1,2.1198587E-1,2E0,1E0,4E0,9E0,4E0,9.5E1,1E0,1.6E1,4E0,3E0,1E0,2E0,1.4E1,1.3E1,3E0,2.2E1,2.7E1,1E0,4E0,3E0,6E0,2.1E1,1.6E1,2E0,4E0,1.02E1,1.8E1,2E0,5.5E1,1E0,2.884864E-1,9.75E0,6.337923E-2,1.7629614E-1,-6.781068E-2,1.07539155E-1,2.3526274E-1,-2.190136E-2,2.4633634E-1,1.1967035E-1,1.4709093E-1,-2.0073693E-1,-1.5604703E-1,2.2931199E-1,8.218398E-2,2.2885053E-1,1.21182516E-1,-2.954452E-1,2.2260332E-1,5.176382E-2,-3.0928329E-2,8.532831E-2,2.246977E-1,1.6613905E-1,-3.9867008E-1,4.1045643E-2,2.371699E-1,1.5104899E-1,2.561472E-1,2.2717972E-1,-3.4699548E-2,1.7253208E-1,2.7092457E-1,9.81613E-2,2.2129522E-1,-1.4947298E-1,-1.3006173E-1,2.2117977E-1,2.0134357E-1,-1.9725397E-1,-1.5690432E-1,2.0072542E-2,-2.7807137E-1,3.5107243E-1,2.19135E-2,2.016572E-1,-2.1076213E-1,3.5207972E-1,2.4637042E-1,-1.8595533E-1,-1.4633557E-1,-2.4283174E-1,3.5714728E-1,1.9419214E-2,-1.5397602E-1,1.1742449E-1,2.527934E-1,-1.6197857E-1,-1.1075856E-1,-2.2240995E-1,2.8162548E-1,-1.8835212E-1,-2.3389494E-1,3.195098E-1,-2.209438E-1,2.1026914E-1,2.6383695E-1,4.968674E-2,-2.1571289E-1,1.1816875E-1,2.8698444E-1,6.305175E-2,-1.1959203E-2,2.4680665E-1,1.13776386E-1,-2.7351055E-1,1.350414E-1,2.194531E-1,-8.929979E-2,1.0997715E-1,1.45634E-1,-2.5635257E-1,-1.1129639E-1,8.956224E-2,-1.2059863E-1,1.8357964E-1,8.399873E-2,2.6311937E-1,2.3196109E-1,-2.5443298E-1,-1.3162538E-1,2.798358E-1,2.0668845E-1,-6.9168836E-2,-2.2478949E-1,1.5452348E-1,1.8548147E-1,-3.2572255E-1,1.6126029E-1,2.608175E-1,1.6724218E-1,-1.1142158E-1,-1.208157E-2,-2.3444112E-1],"split_indices":[6,15,3,3,39,26,15,2,5,15,1,15,1,7,21,16,39,5,3,24,27,27,38,14,21,27,39,28,5,33,26,27,7,26,7,0,28,0,5,1,15,26,0,0,0,2,1,3,32,2,3,2,3,5,5,27,27,30,26,3,16,15,12,3,27,38,26,27,16,27,10,26,3,2,5,7,30,3,32,14,24,0,5,0,26,0,0,19,19,39,3,33,5,34,12,2,15,39,32,27,2,30,39,2,16,5,24,5,3,2,39,35,38,2,18,5,7,0,38,0,0,0,0,0,0,0,0,0,0,0,0,0,0,0,0,0,0,0,0,0,0,0,0,0,0,0,0,0,0,0,0,0,0,0,0,0,0,0,0,0,0,0,0,0,0,0,0,0,0,0,0,0,0,0,0,0,0,0,0,0,0,0,0,0,0,0,0,0,0,0,0,0,0,0,0,0,0,0,0,0,0,0,0,0,0,0,0,0,0,0,0,0,0,0,0,0,0,0,0,0,0],"split_type":[0,0,0,0,0,0,0,0,0,0,0,0,0,0,0,0,0,0,0,0,0,0,0,0,0,0,0,0,0,0,0,0,0,0,0,0,0,0,0,0,0,0,0,0,0,0,0,0,0,0,0,0,0,0,0,0,0,0,0,0,0,0,0,0,0,0,0,0,0,0,0,0,0,0,0,0,0,0,0,0,0,0,0,0,0,0,0,0,0,0,0,0,0,0,0,0,0,0,0,0,0,0,0,0,0,0,0,0,0,0,0,0,0,0,0,0,0,0,0,0,0,0,0,0,0,0,0,0,0,0,0,0,0,0,0,0,0,0,0,0,0,0,0,0,0,0,0,0,0,0,0,0,0,0,0,0,0,0,0,0,0,0,0,0,0,0,0,0,0,0,0,0,0,0,0,0,0,0,0,0,0,0,0,0,0,0,0,0,0,0,0,0,0,0,0,0,0,0,0,0,0,0,0,0,0,0,0,0,0,0,0,0,0,0,0,0,0,0,0,0,0],"sum_hessian":[1.2209986E4,2.8836484E3,9.326338E3,2.273577E3,6.100716E2,4.879712E3,4.446626E3,1.2066249E3,1.0669519E3,4.935933E2,1.164783E2,1.9870717E3,2.8926401E3,3.3586953E3,1.0879305E3,7.8950134E2,4.1712354E2,3.551996E1,1.031432E3,4.0874533E2,8.484797E1,5.8053713E0,1.1067293E2,1.417123E3,5.6994867E2,2.8220803E3,7.055994E1,1.8999178E3,1.4587773E3,9.487053E2,1.392252E2,3.6331622E2,4.2618515E2,1.9307762E2,2.2404591E2,7.288593E0,2.8231367E1,2.9325616E2,7.381758E2,2.7116623E2,1.375791E2,8.215275E1,2.6952164E0,4.7514358E0,1.0539356E0,1.0822741E2,2.445519E0,1.1448412E3,2.7228183E2,4.858522E2,8.409646E1,1.6462123E3,1.1758679E3,1.6685122E1,5.3874813E1,1.7135784E3,1.8633952E2,1.0068255E3,4.5195187E2,1.9210612E2,7.565992E2,1.1950342E2,1.9721786E1,2.6937244E2,9.3943794E1,2.9385602E2,1.3232913E2,5.7881992E1,1.3519563E2,2.1552852E2,8.517392E0,3.7296739E0,2.4501694E1,2.900734E2,3.1827903E0,1.7270312E2,5.6547266E2,2.4426843E2,2.6897789E1,1.16294815E2,2.1284294E1,1.2491994E0,8.090355E1,1.0580017E2,2.427242E0,1.1989535E0,1.2465656E0,8.202193E1,1.0628193E3,2.4268825E2,2.959357E1,4.791563E2,6.6958804E0,6.014884E1,2.3947613E1,1.5215878E3,1.24624565E2,1.1396344E1,1.1644716E3,6.0047035E0,1.0680418E1,2.4748379E1,2.9126434E1,4.8576456E2,1.2278137E3,1.3996841E2,4.6371105E1,4.9665192E2,5.101736E2,4.1731882E2,3.463304E1,9.0025856E1,1.0208028E2,7.279649E2,2.8634285E1,1.1329185E2,6.2115674E0,5.180709E0,1.4541078E1,3.4210636E1,2.3516179E2,3.3654198E1,6.0289597E1,2.9211044E2,1.7455841E0,4.9429207E1,8.289993E1,5.6209187E1,1.6728061E0,1.2379034E2,1.1405287E1,5.7562733E1,1.5796579E2,1.2105244E0,7.306868E0,2.6735272E0,1.0561464E0,1.1725356E1,1.2776337E1,2.0623654E2,8.383685E1,2.0973399E0,1.0854504E0,1.18043335E2,5.4659786E1,3.8587827E2,1.7959439E2,2.0409589E2,4.017255E1,2.2965816E1,3.9319723E0,1.1386949E2,2.4253201E0,1.0505893E1,1.0778402E1,1.2207866E0,7.968276E1,1.3598553E0,1.0673866E0,8.015512E1,1.8668011E0,8.3576965E2,2.2704967E2,2.3861359E2,4.074661E0,2.7446962E1,2.1466074E0,1.635985E2,3.1555783E2,5.452912E0,1.2429688E0,3.6157326E1,2.3991518E1,2.2326859E1,1.6207536E0,9.9677563E2,5.2481213E2,1.105265E2,1.4098067E1,2.7673514E0,8.628993E0,1.1563312E3,8.140318E0,4.562568E0,1.4421353E0,8.733694E0,1.9467243E0,2.1303635E1,3.4447436E0,1.6947382E1,1.2179052E1,4.2333298E2,6.2431576E1,5.3399854E2,6.9381525E2,6.0597115E1,7.93713E1,1.0375987E0,4.5333508E1,1.349063E2,3.6174564E2,4.859852E2,2.4188408E1,2.861777E2,1.3114111E2,5.0964184E0,2.9536625E1,8.384995E1,6.175903E0,6.38495E1,3.8230778E1,7.140227E2,1.3942187E1,2.6980799E1,1.653485E0,1.3389282E1,9.9902565E1,4.3531556E0,1.8584117E0,1.6151762E0,1.2925901E1],"tree_param":{"num_deleted":"0","num_feature":"40","num_nodes":"221","size_leaf_vector":"1"}},{"base_weights":[2.0280785E-3,6.756934E-1,-3.409037E-1,8.0625093E-1,-4.4156602E-1,3.0964077E-1,-4.859543E-1,3.4877908E-1,1.0324523E0,-8.8427186E-1,3.9169002E-1,5.9448713E-1,-1.787497E-1,-7.388352E-1,-1.5020916E-1,1.2274359E-2,8.227402E-1,8.519907E-1,1.1680387E0,-9.659559E-1,5.209522E-1,-1.7397648E-1,9.313685E-1,4.356428E-1,1.0757431E0,-4.7686347E-1,7.0722884E-1,1.112034E0,-7.7253795E-1,1.0276459E-1,-9.63055E-1,3.046107E-1,-7.6270956E-1,3.1592777E-1,9.5912594E-1,9.319291E-1,-5.7209853E-2,1.1721966E0,-2.9705754E-1,-1.0159377E0,6.8022656E-1,-3.6950785E-1,1.1137611E0,-4.2297176E-1,2.4627724E-1,3.465578E-1,1.141521E0,5.4590726E-1,-6.34492E-1,1.0920705E0,-1.2019324E-1,-8.479188E-1,1.1407252E-1,-1.3148427E-1,1.142624E0,5.757627E-1,1.1589346E0,-8.0672705E-1,7.4582994E-1,2.3830542E-1,-9.62288E-1,-1.0443397E0,4.7512904E-1,-2.5665554E-1,7.402549E-1,-1.0010087E0,1.1449097E0,4.1853186E-1,-1.1562861E0,9.993153E-1,1.7356342E-2,1.0276951E0,6.587684E-1,-6.749489E-1,6.561218E-1,6.4185077E-1,1.1868951E0,-4.2217192E-1,-1.1457648E0,1.2203701E-4,9.710534E-1,2.2363737E-1,-9.665183E-1,2.5285098E-1,2.801974E-2,-6.705516E-1,9.1585386E-1,9.608296E-1,-3.2796338E-1,2.4056534E-1,6.309779E-1,7.097273E-1,-2.3050822E-1,-8.82555E-1,8.307651E-1,1.1080072E0,-6.2829286E-2,-9.7299534E-1,3.412956E-1,6.855755E-1,-6.737374E-1,1.535223E-1,-2.6374444E-1,1.1567745E0,1.9190122E-3,9.7200876E-1,9.606631E-4,2.7338773E-1,1.0316104E0,-8.267847E-1,1.0679297E0,1.285762E0,7.12938E-2,-8.67328E-3,8.31615E-1,-1.1660593E0,2.6421583E-1,-1.0717298E0,1.1698031E0,9.3141484E-1,-6.3837546E-1,2.4880154E-1,-8.4906995E-2,1.6381322E-1,-5.187727E-2,-2.234514E-1,2.0473218E-1,-2.502845E-1,2.9042584E-1,6.4083345E-2,2.4900356E-1,1.9574177E-2,-2.8657755E-1,2.058568E-1,8.2483254E-2,-1.9002736E-1,2.0439482E-1,7.5308457E-3,2.0797062E-1,-5.4775696E-4,2.146656E-1,2.2433933E-3,-2.550142E-1,-5.047096E-2,1.9365504E-1,-6.7830764E-2,2.2397105E-1,2.3961604E-1,9.87974E-2,-1.2740536E-1,1.887077E-1,-2.3236695E-1,1.14708975E-1,1.0147854E-1,-9.782882E-2,6.3781425E-2,2.1376844E-1,-2.1609417E-1,-5.485183E-2,-2.3231657E-1,1.589842E-3,-1.2646484E-1,2.6843184E-1,2.2179459E-1,6.1675545E-2,-1.700993E-1,2.3788719E-1,-1.3952988E-1,2.0472276E-1,1.0040307E-1,1.8434693E-1,-9.3257286E-2,2.2988367E-1,-2.7246144E-1,-5.70454E-2,7.0768557E-3,2.5262743E-1,1.4992106E-1,2.3574696E-1,-2.0258875E-1,2.8721735E-1,-1.3556363E-1,1.7714833E-1,1.9588777E-1,3.2129906E-2,-1.6212974E-1,2.5139877E-1,-5.9918385E-2,2.0163944E-1,8.3404765E-2,2.3514478E-1,5.9830267E-2,2.30863E-1,1.5831994E-1,2.5018284E-1,-8.6734876E-2,-1.8187493E-1,2.8070217E-1,7.700023E-2,2.669923E-1,8.788603E-3,-5.8117058E-2,2.0547251E-1,-6.66741E-2,1.0535071E-1,7.565129E-2,2.3028398E-1,-2.4257696E-1,2.252043E-1,-2.2327583E-1,-1.1276241E-2,3.1418225E-1,-1.3725428E-1,2.5047445E-1,-9.1268264E-2,1.7343241E-1,-2.3307247E-1],"categories":[],"categories_nodes":[],"categories_segments":[],"categories_sizes":[],"default_left":[0,0,0,0,0,0,0,0,0,0,0,0,0,0,0,0,0,0,0,0,0,0,0,0,0,0,0,0,0,0,0,0,0,0,0,0,0,0,0,0,0,0,0,0,0,0,0,0,0,0,0,0,0,0,0,0,0,0,0,0,0,0,0,0,0,0,0,0,0,0,0,0,0,0,0,0,0,0,0,0,0,0,0,0,0,0,0,0,0,0,0,0,0,0,0,0,0,0,0,0,0,0,0,0,0,0,0,0,0,0,0,0,0,0,0,0,0,0,0,0,0,0,0,0,0,0,0,0,0,0,0,0,0,0,0,0,0,0,0,0,0,0,0,0,0,0,0,0,0,0,0,0,0,0,0,0,0,0,0,0,0,0,0,0,0,0,0,0,0,0,0,0,0,0,0,0,0,0,0,0,0,0,0,0,0,0,0,0,0,0,0,0,0,0,0,0,0,0,0,0,0,0,0,0,0,0,0,0,0,0,0,0,0,0,0,0,0],"id":5,"left_children":[1,3,5,7,9,11,13,15,17,19,21,23,25,27,29,31,33,35,37,39,41,43,45,47,49,51,53,55,57,59,61,63,65,67,69,71,73,75,-1,77,79,81,83,85,-1,87,89,91,93,95,-1,97,99,101,103,105,107,109,111,113,115,117,119,121,123,125,127,129,131,133,135,137,139,141,143,145,147,149,151,153,155,-1,157,-1,-1,159,161,163,165,-1,167,169,171,173,175,177,-1,179,181,183,185,187,-1,189,-1,191,-1,-1,193,195,197,199,201,203,205,207,-1,209,211,213,215,-1,-1,-1,-1,-1,-1,-1,-1,-1,-1,-1,-1,-1,-1,-1,-1,-1,-1,-1,-1,-1,-1,-1,-1,-1,-1,-1,-1,-1,-1,-1,-1,-1,-1,-1,-1,-1,-1,-1,-1,-1,-1,-1,-1,-1,-1,-1,-1,-1,-1,-1,-1,-1,-1,-1,-1,-1,-1,-1,-1,-1,-1,-1,-1,-1,-1,-1,-1,-1,-1,-1,-1,-1,-1,-1,-1,-1,-1,-1,-1,-1,-1,-1,-1,-1,-1,-1,-1,-1,-1,-1,-1,-1,-1,-1,-1],"loss_changes":[2.647755E3,5.64306E2,7.168184E2,3.5789478E2,1.4980554E2,1.9282254E2,5.2719104E2,1.8291994E2,5.567456E1,3.0909012E1,4.3287903E1,6.643622E1,1.3532603E2,2.218186E2,5.4900507E2,1.5242418E2,3.261322E1,7.2537415E1,1.6301392E1,2.1317886E1,8.436138E0,2.4951345E1,8.508682E0,7.818941E1,6.5834503E0,8.407888E1,4.7285194E1,9.363098E-1,1.812251E2,2.9424658E2,7.4575195E1,1.1963019E2,8.491663E1,1.5962133E1,1.4166138E1,2.3305115E1,3.637385E1,9.514526E0,0E0,1.8302856E1,1.5795059E0,7.143816E0,1.1966438E0,2.0519382E1,0E0,8.845926E0,8.95607E-1,7.6302475E1,2.3300264E1,5.1612244E0,0E0,3.5345276E1,6.73731E1,1.543096E1,1.3528366E0,1.6049902E0,1.1643219E-1,1.2885107E2,2.800333E1,2.6488174E2,1.0861818E2,3.7647034E1,1.8167166E1,5.4493397E1,2.1899536E1,3.9825653E1,1.7226093E1,7.4283924E0,2.5483646E0,5.8965454E0,1.6867285E1,8.109863E0,6.60273E1,1.8211456E1,1.1119604E1,1.8071302E1,9.340454E0,1.3896145E1,6.175537E0,1.09012E0,1.5881538E-2,0E0,1.3027287E-1,0E0,0E0,1.7086445E1,7.313098E0,7.241554E-1,9.383551E0,0E0,4.7678013E0,2.1315918E1,3.471558E1,1.496653E1,3.2238555E0,4.5052795E0,0E0,2.1977875E1,1.3440753E1,1.3205418E1,1.7668837E1,1.47039385E1,0E0,6.873703E-1,0E0,1.6927457E-1,0E0,0E0,1.1063309E0,1.08948975E2,7.8163986E0,2.5554657E0,1.2530442E1,2.2223422E2,7.659555E1,2.4098877E1,0E0,2.6833435E1,6.8932133E0,1.1680058E1,9.4574585E0,0E0,0E0,0E0,0E0,0E0,0E0,0E0,0E0,0E0,0E0,0E0,0E0,0E0,0E0,0E0,0E0,0E0,0E0,0E0,0E0,0E0,0E0,0E0,0E0,0E0,0E0,0E0,0E0,0E0,0E0,0E0,0E0,0E0,0E0,0E0,0E0,0E0,0E0,0E0,0E0,0E0,0E0,0E0,0E0,0E0,0E0,0E0,0E0,0E0,0E0,0E0,0E0,0E0,0E0,0E0,0E0,0E0,0E0,0E0,0E0,0E0,0E0,0E0,0E0,0E0,0E0,0E0,0E0,0E0,0E0,0E0,0E0,0E0,0E0,0E0,0E0,0E0,0E0,0E0,0E0,0E0,0E0,0E0,0E0,0E0,0E0,0E0,0E0,0E0,0E0,0E0,0E0,0E0,0E0,0E0,0E0],"parents":[2147483647,0,0,1,1,2,2,3,3,4,4,5,5,6,6,7,7,8,8,9,9,10,10,11,11,12,12,13,13,14,14,15,15,16,16,17,17,18,18,19,19,20,20,21,21,22,22,23,23,24,24,25,25,26,26,27,27,28,28,29,29,30,30,31,31,32,32,33,33,34,34,35,35,36,36,37,37,39,39,40,40,41,41,42,42,43,43,45,45,46,46,47,47,48,48,49,49,51,51,52,52,53,53,54,54,55,55,56,56,57,57,58,58,59,59,60,60,61,61,62,62,63,63,64,64,65,65,66,66,67,67,68,68,69,69,70,70,71,71,72,72,73,73,74,74,75,75,76,76,77,77,78,78,79,79,80,80,82,82,85,85,86,86,87,87,88,88,90,90,91,91,92,92,93,93,94,94,95,95,97,97,98,98,99,99,100,100,101,101,103,103,105,105,108,108,109,109,110,110,111,111,112,112,113,113,114,114,115,115,117,117,118,118,119,119,120,120],"right_children":[2,4,6,8,10,12,14,16,18,20,22,24,26,28,30,32,34,36,38,40,42,44,46,48,50,52,54,56,58,60,62,64,66,68,70,72,74,76,-1,78,80,82,84,86,-1,88,90,92,94,96,-1,98,100,102,104,106,108,110,112,114,116,118,120,122,124,126,128,130,132,134,136,138,140,142,144,146,148,150,152,154,156,-1,158,-1,-1,160,162,164,166,-1,168,170,172,174,176,178,-1,180,182,184,186,188,-1,190,-1,192,-1,-1,194,196,198,200,202,204,206,208,-1,210,212,214,216,-1,-1,-1,-1,-1,-1,-1,-1,-1,-1,-1,-1,-1,-1,-1,-1,-1,-1,-1,-1,-1,-1,-1,-1,-1,-1,-1,-1,-1,-1,-1,-1,-1,-1,-1,-1,-1,-1,-1,-1,-1,-1,-1,-1,-1,-1,-1,-1,-1,-1,-1,-1,-1,-1,-1,-1,-1,-1,-1,-1,-1,-1,-1,-1,-1,-1,-1,-1,-1,-1,-1,-1,-1,-1,-1,-1,-1,-1,-1,-1,-1,-1,-1,-1,-1,-1,-1,-1,-1,-1,-1,-1,-1,-1,-1,-1],"split_conditions":[1E0,3E0,1E0,3E0,1E0,3E0,3E0,1E0,1E0,6E0,4E0,2E0,1E1,1E0,3E0,3E0,2E0,2E0,9E0,1E0,1.2E1,1.3E1,1.2E1,1E0,9E0,1E0,1E0,5E0,2E0,5.4E1,1E0,2E0,9E0,2E0,2E0,3E0,4E0,5E0,-2.9705754E-1,4E0,2E0,1E0,1.25E1,1.9E1,2.4627724E-1,5E0,7E0,2E0,1E0,4E0,-1.2019324E-1,6E0,2E0,3E0,7E0,1E0,7.785714E0,2.2E1,7E0,1.3E1,1E0,2.1E1,1.3E1,1E0,4E0,3E0,1E0,1E0,2E0,2E0,1E0,4E0,1E1,8.571428E0,5E0,1E0,4E0,1.8E1,2.7E1,5E0,8.0625E0,2.2363737E-1,4E0,2.5285098E-1,2.801974E-2,2E0,2E0,2.2110832E0,1.2E1,2.4056534E-1,1.1E1,3E0,5E0,3E0,1E0,1E0,-6.2829286E-2,1E0,5E0,5E0,2.2E1,3.7712362E0,-2.6374444E-1,2E0,1.9190122E-3,4E0,9.606631E-4,2.7338773E-1,1.2E1,3E0,2.2E1,1E0,2E0,1E0,4E0,7E0,2.6421583E-1,1.8E1,1E0,7.5E0,2E0,2.4880154E-1,-8.4906995E-2,1.6381322E-1,-5.187727E-2,-2.234514E-1,2.0473218E-1,-2.502845E-1,2.9042584E-1,6.4083345E-2,2.4900356E-1,1.9574177E-2,-2.8657755E-1,2.058568E-1,8.2483254E-2,-1.9002736E-1,2.0439482E-1,7.5308457E-3,2.0797062E-1,-5.4775696E-4,2.146656E-1,2.2433933E-3,-2.550142E-1,-5.047096E-2,1.9365504E-1,-6.7830764E-2,2.2397105E-1,2.3961604E-1,9.87974E-2,-1.2740536E-1,1.887077E-1,-2.3236695E-1,1.14708975E-1,1.0147854E-1,-9.782882E-2,6.3781425E-2,2.1376844E-1,-2.1609417E-1,-5.485183E-2,-2.3231657E-1,1.589842E-3,-1.2646484E-1,2.6843184E-1,2.2179459E-1,6.1675545E-2,-1.700993E-1,2.3788719E-1,-1.3952988E-1,2.0472276E-1,1.0040307E-1,1.8434693E-1,-9.3257286E-2,2.2988367E-1,-2.7246144E-1,-5.70454E-2,7.0768557E-3,2.5262743E-1,1.4992106E-1,2.3574696E-1,-2.0258875E-1,2.8721735E-1,-1.3556363E-1,1.7714833E-1,1.9588777E-1,3.2129906E-2,-1.6212974E-1,2.5139877E-1,-5.9918385E-2,2.0163944E-1,8.3404765E-2,2.3514478E-1,5.9830267E-2,2.30863E-1,1.5831994E-1,2.5018284E-1,-8.6734876E-2,-1.8187493E-1,2.8070217E-1,7.700023E-2,2.669923E-1,8.788603E-3,-5.8117058E-2,2.0547251E-1,-6.66741E-2,1.0535071E-1,7.565129E-2,2.3028398E-1,-2.4257696E-1,2.252043E-1,-2.2327583E-1,-1.1276241E-2,3.1418225E-1,-1.3725428E-1,2.5047445E-1,-9.1268264E-2,1.7343241E-1,-2.3307247E-1],"split_indices":[4,15,6,17,16,2,17,16,31,17,17,31,3,17,15,24,17,15,22,21,3,2,27,22,15,31,39,27,0,27,20,17,2,15,22,2,17,3,0,33,35,2,38,3,0,2,15,15,21,22,0,17,15,15,15,39,38,4,3,3,8,4,22,17,2,35,39,18,33,15,21,3,2,38,24,16,22,3,3,33,38,0,12,0,0,31,17,29,3,0,24,17,17,17,15,16,0,18,12,4,4,29,0,17,0,3,0,0,3,24,27,22,31,39,17,25,0,3,14,29,20,0,0,0,0,0,0,0,0,0,0,0,0,0,0,0,0,0,0,0,0,0,0,0,0,0,0,0,0,0,0,0,0,0,0,0,0,0,0,0,0,0,0,0,0,0,0,0,0,0,0,0,0,0,0,0,0,0,0,0,0,0,0,0,0,0,0,0,0,0,0,0,0,0,0,0,0,0,0,0,0,0,0,0,0,0,0,0,0,0,0,0,0,0,0,0,0],"split_type":[0,0,0,0,0,0,0,0,0,0,0,0,0,0,0,0,0,0,0,0,0,0,0,0,0,0,0,0,0,0,0,0,0,0,0,0,0,0,0,0,0,0,0,0,0,0,0,0,0,0,0,0,0,0,0,0,0,0,0,0,0,0,0,0,0,0,0,0,0,0,0,0,0,0,0,0,0,0,0,0,0,0,0,0,0,0,0,0,0,0,0,0,0,0,0,0,0,0,0,0,0,0,0,0,0,0,0,0,0,0,0,0,0,0,0,0,0,0,0,0,0,0,0,0,0,0,0,0,0,0,0,0,0,0,0,0,0,0,0,0,0,0,0,0,0,0,0,0,0,0,0,0,0,0,0,0,0,0,0,0,0,0,0,0,0,0,0,0,0,0,0,0,0,0,0,0,0,0,0,0,0,0,0,0,0,0,0,0,0,0,0,0,0,0,0,0,0,0,0,0,0,0,0,0,0,0,0,0,0,0,0,0,0,0,0,0,0],"sum_hessian":[1.1459092E4,3.865203E3,7.593889E3,3.4610408E3,4.041622E2,1.3842892E3,6.2096E3,1.1459677E3,2.315073E3,2.638947E2,1.402675E2,8.74205E2,5.100842E2,3.5411953E3,2.6684045E3,6.707628E2,4.7520486E2,9.9630365E2,1.3187695E3,2.4969293E2,1.4201768E1,6.881567E1,7.145183E1,6.586987E2,2.1550629E2,3.8200803E2,1.2807616E2,6.275669E1,3.4784387E3,2.0357213E3,6.326833E2,4.8748325E2,1.8327954E2,1.0146713E2,3.7373773E2,9.1576324E2,8.0540405E1,1.3172634E3,1.506034E0,2.4270667E2,6.986265E0,5.826478E0,8.37529E0,5.905213E1,9.763537E0,1.9588943E1,5.1862885E1,5.9761194E2,6.108682E1,2.1377328E2,1.732992E0,2.3439432E2,1.4761371E2,4.4005405E1,8.4070755E1,6.114819E0,5.6641872E1,3.4022979E3,7.614089E1,1.8065874E3,2.2913387E2,5.990968E2,3.3586483E1,2.1320695E2,2.742763E2,1.6334926E2,1.9930285E1,9.552533E1,5.9418054E0,3.5838287E2,1.5354847E1,6.760041E2,2.3975912E2,4.3191093E1,3.7349308E1,3.672781E1,1.2805356E3,4.43093E1,1.9839737E2,2.3922827E0,4.593982E0,1.4185661E0,4.4079123E0,6.995568E0,1.3797219E0,5.0257504E1,8.794625E0,1.0030197E1,9.558745E0,4.5092255E1,6.7706275E0,4.9355914E2,1.04052795E2,5.2582466E1,8.504352E0,2.1158743E2,2.185853E0,2.1225233E2,2.2141977E1,8.562692E1,6.1986786E1,3.6188694E1,7.8167143E0,8.301304E1,1.0577168E0,3.195044E0,2.919775E0,1.7810223E1,3.883165E1,3.3668337E3,3.5464046E1,4.1786648E1,3.435424E1,1.2762885E3,5.3029895E2,2.1081017E2,1.8323696E1,5.922858E2,6.8109403E0,2.3940008E1,9.646477E0,2.0806742E1,1.9240022E2,2.5440015E2,1.9876146E1,1.549035E2,8.445745E0,1.9155416E0,1.8014742E1,8.6628975E1,8.896357E0,1.1904191E0,4.7513866E0,3.4025476E2,1.812812E1,7.849575E0,7.505272E0,8.2505245E0,6.677536E2,9.275099E1,1.4700813E2,2.060879E1,2.2582306E1,9.60038E0,2.7748926E1,1.2128031E1,2.459978E1,1.2594757E3,2.1059868E1,3.8747124E1,5.562178E0,1.9688142E2,1.5159498E0,1.156341E0,1.2359419E0,1.154681E0,3.439301E0,3.3033578E0,1.1045543E0,2.8743696E1,2.151381E1,1.7944828E0,7.0001426E0,7.6039686E0,2.426229E0,7.437176E0,2.1215694E0,1.3672388E0,5.403389E0,2.5100626E2,2.4255289E2,8.9433945E1,1.4618846E1,2.8450993E1,2.4131474E1,3.375924E0,5.128428E0,3.6784718E1,1.7480272E2,2.0936017E2,2.89217E0,7.6247416E0,1.4517235E1,5.434033E1,3.1286596E1,5.842398E1,3.5628052E0,2.4074715E1,1.2113978E1,2.647973E0,8.036507E1,1.244129E0,1.9509151E0,2.0741411E1,1.8090237E1,5.8562683E2,2.7812068E3,2.307178E1,1.2392268E1,4.012205E1,1.6645964E0,2.5426271E1,8.927969E0,7.9472394E2,4.8156454E2,2.2025131E2,3.1004764E2,2.070511E2,3.7590663E0,5.6724225E2,2.504362E1,5.7269516E0,1.0839885E0,1.952245E1,4.4175572E0,2.3337443E0,7.3127327E0],"tree_param":{"num_deleted":"0","num_feature":"40","num_nodes":"217","size_leaf_vector":"1"}},{"base_weights":[3.1921833E-3,-3.6094856E-1,3.394924E-1,8.6857355E-4,-6.2545776E-1,5.23331E-1,-6.109188E-1,5.8180326E-1,-1.5852469E-1,-6.883225E-1,1.2700756E0,5.9097314E-1,-7.762811E-1,-7.681198E-1,6.4851373E-1,6.2497056E-1,-3.911662E-1,1.0235425E0,-2.1384911E-1,-7.2945887E-1,8.307561E-1,2.5731707E-1,3.4188595E-2,2.9921806E-1,8.3117586E-1,-1.012753E0,2.6204702E-1,6.855623E-1,-8.318617E-1,-5.03105E-1,8.6121076E-1,6.535367E-1,-5.552101E-1,-7.3129976E-1,4.9642184E-1,5.877894E-1,1.0576665E0,-5.5920166E-1,9.2368074E-2,-8.425167E-1,-2.5149345E-1,9.844022E-1,4.112085E-2,-5.6925084E-2,6.160358E-1,9.123134E-1,1.3403457E-1,-1.1418428E0,7.987586E-1,1.3096195E0,5.035782E-2,-1.9626905E-1,-9.599744E-1,-1.0868089E0,4.4508067E-1,1.032434E0,-4.1948482E-1,7.7775544E-1,4.2003623E-1,-1.2933475E0,7.225541E-1,2.2284727E-1,-1.331601E0,7.417382E-1,-2.5461942E-3,7.039866E-2,1.8722081E-1,2.1420746E-1,5.394397E-2,-6.1424184E-1,8.857772E-1,8.734462E-1,-1.5157017E-1,-8.6095434E-1,2.8006423E-1,-4.680007E-1,7.772956E-1,1.140044E0,5.4167104E-1,-9.8038703E-1,6.563229E-1,2.5539395E-1,-4.25165E-1,7.8967416E-1,1.9846605E-1,6.246054E-1,1.0728719E0,-7.0108217E-1,1.133584E0,-1.1673993E0,1.9978552E-1,-1.3710247E-1,1.0895295E0,-2.0057622E-1,1.5274367E0,-6.8958175E-1,1.3725477E0,4.5739812E-1,-7.2042936E-1,-9.997178E-1,1.642104E-1,-1.3024985E0,7.891362E-2,2.060598E-1,-1.568245E-1,1.1260937E0,-3.4491193E-1,1.8237047E-1,-9.4668806E-1,1.5972874E-1,2.4804527E-2,1.3103038E-2,1.4332902E-1,-8.5852966E-2,-3.0976176E-1,1.992639E-1,-2.0235004E-3,-1.5680526E-1,1.167617E-1,1.3775157E-2,-3.062872E-1,1.957889E-1,5.80866E-2,-1.3121645E-1,1.4240216E-1,2.3616384E-1,-1.4087892E-1,-1.306171E-1,1.8645489E-1,1.5399511E-3,-2.169412E-1,-1.812574E-1,-1.0763249E-2,-2.1879073E-2,-1.6952336E-1,2.1562922E-1,-7.857945E-2,2.3623219E-1,9.8085426E-2,-1.0873761E-1,1.9335578E-1,-2.4814267E-1,-1.106861E-2,-4.160147E-2,1.6569375E-1,1.06322244E-1,-7.607173E-2,-1.687273E-1,9.780457E-2,1.7034248E-1,-2.6071897E-2,-1.10480584E-1,1.20366074E-1,1.3379267E-1,-1.4577082E-1,7.769515E-2,2.3208931E-1,-1.7311954E-1,1.6013885E-1,-1.9043687E-1,2.3449405E-1,-2.363118E-1,1.4435391E-1,2.5031587E-1,4.996973E-2,3.4085718E-1,-2.3942342E-2,1.628771E-1,-1.7995396E-1,3.4532273E-1,-3.861862E-2,-8.490247E-2,1.7564593E-1,-1.938015E-1,5.3864952E-2,-2.0362635E-1,1.4634277E-1,2.227393E-1,-1.5527675E-1,-2.9958355E-1,2.0601712E-2,-1.3738082E-1,7.0652746E-2,6.948858E-2,2.3650375E-1,1.9062956E-1,-2.3400548E-1,1.3251376E-1,-2.5361726E-1],"categories":[],"categories_nodes":[],"categories_segments":[],"categories_sizes":[],"default_left":[0,0,0,0,0,0,0,0,0,0,0,0,0,0,0,0,0,0,0,0,0,0,0,0,0,0,0,0,0,0,0,0,0,0,0,0,0,0,0,0,0,0,0,0,0,0,0,0,0,0,0,0,0,0,0,0,0,0,0,0,0,0,0,0,0,0,0,0,0,0,0,0,0,0,0,0,0,0,0,0,0,0,0,0,0,0,0,0,0,0,0,0,0,0,0,0,0,0,0,0,0,0,0,0,0,0,0,0,0,0,0,0,0,0,0,0,0,0,0,0,0,0,0,0,0,0,0,0,0,0,0,0,0,0,0,0,0,0,0,0,0,0,0,0,0,0,0,0,0,0,0,0,0,0,0,0,0,0,0,0,0,0,0,0,0,0,0,0,0,0,0,0,0,0,0,0,0,0,0,0,0,0,0,0,0,0,0,0,0],"id":6,"left_children":[1,3,5,7,9,11,13,15,17,19,21,23,25,27,29,31,33,35,37,39,41,-1,-1,43,45,47,-1,49,51,53,55,57,59,61,63,65,67,69,71,73,75,77,79,81,83,85,87,89,91,93,95,97,99,101,103,105,107,109,111,113,115,117,119,121,-1,-1,-1,-1,-1,123,125,127,129,131,-1,133,135,137,139,141,143,145,147,149,151,153,155,157,159,161,-1,-1,163,-1,165,167,169,171,173,175,177,179,-1,-1,181,183,185,-1,187,-1,-1,-1,-1,-1,-1,-1,-1,-1,-1,-1,-1,-1,-1,-1,-1,-1,-1,-1,-1,-1,-1,-1,-1,-1,-1,-1,-1,-1,-1,-1,-1,-1,-1,-1,-1,-1,-1,-1,-1,-1,-1,-1,-1,-1,-1,-1,-1,-1,-1,-1,-1,-1,-1,-1,-1,-1,-1,-1,-1,-1,-1,-1,-1,-1,-1,-1,-1,-1,-1,-1,-1,-1,-1,-1,-1,-1,-1,-1,-1],"loss_changes":[1.3043602E3,4.894265E2,9.6781E2,2.0016835E2,3.529076E2,4.08386E2,1.7827676E2,1.9792236E1,1.11152016E2,1.7932947E2,1.5072937E0,3.0890063E2,1.1481181E2,7.458371E1,2.4973255E1,1.5399979E1,6.517789E0,5.0865173E-1,1.7150708E2,1.5029297E2,9.165058E0,0E0,0E0,2.249651E2,1.3669946E2,4.9354767E1,0E0,1.3451979E1,6.2157166E1,9.477517E0,1.9058079E1,1.23181305E1,1.1386353E1,8.970352E0,7.893051E-1,3.0877328E-1,4.4062805E-1,6.115483E1,1.640285E2,9.4330444E1,1.1935334E2,3.7562332E0,9.066055E0,1.0814889E2,7.634262E1,9.941016E1,2.122724E2,1.1768311E1,6.948059E0,1.0176203E1,1.8497675E1,4.4767227E1,2.8622864E1,3.8205519E0,2.5925431E0,1.0090363E1,8.392641E0,3.770752E0,1.610038E1,9.647522E-1,9.5264745E-1,2.894475E0,2.7469673E0,1.6856146E-1,0E0,0E0,0E0,0E0,0E0,4.123755E1,1.4143435E1,1.900592E1,9.75524E1,8.170105E1,0E0,6.007158E1,3.325366E1,6.509361E-1,9.02224E0,1.2410493E0,1.5060627E0,8.957266E1,1.6548267E2,4.262567E1,9.459035E1,4.7219574E1,8.280786E1,3.494716E1,1.0500687E1,5.9878235E0,0E0,0E0,1.374692E0,0E0,4.8882675E0,4.579308E0,4.087166E0,2.2021137E1,1.8065609E1,2.0363953E1,2.1055874E1,2.699335E0,0E0,0E0,1.3972281E0,2.6933365E0,7.0638695E0,0E0,5.068423E0,0E0,0E0,0E0,0E0,0E0,0E0,0E0,0E0,0E0,0E0,0E0,0E0,0E0,0E0,0E0,0E0,0E0,0E0,0E0,0E0,0E0,0E0,0E0,0E0,0E0,0E0,0E0,0E0,0E0,0E0,0E0,0E0,0E0,0E0,0E0,0E0,0E0,0E0,0E0,0E0,0E0,0E0,0E0,0E0,0E0,0E0,0E0,0E0,0E0,0E0,0E0,0E0,0E0,0E0,0E0,0E0,0E0,0E0,0E0,0E0,0E0,0E0,0E0,0E0,0E0,0E0,0E0,0E0,0E0,0E0,0E0,0E0,0E0,0E0,0E0,0E0,0E0,0E0,0E0,0E0],"parents":[2147483647,0,0,1,1,2,2,3,3,4,4,5,5,6,6,7,7,8,8,9,9,10,10,11,11,12,12,13,13,14,14,15,15,16,16,17,17,18,18,19,19,20,20,23,23,24,24,25,25,27,27,28,28,29,29,30,30,31,31,32,32,33,33,34,34,35,35,36,36,37,37,38,38,39,39,40,40,41,41,42,42,43,43,44,44,45,45,46,46,47,47,48,48,49,49,50,50,51,51,52,52,53,53,54,54,55,55,56,56,57,57,58,58,59,59,60,60,61,61,62,62,63,63,69,69,70,70,71,71,72,72,73,73,75,75,76,76,77,77,78,78,79,79,80,80,81,81,82,82,83,83,84,84,85,85,86,86,87,87,88,88,89,89,92,92,94,94,95,95,96,96,97,97,98,98,99,99,100,100,101,101,104,104,105,105,106,106,108,108],"right_children":[2,4,6,8,10,12,14,16,18,20,22,24,26,28,30,32,34,36,38,40,42,-1,-1,44,46,48,-1,50,52,54,56,58,60,62,64,66,68,70,72,74,76,78,80,82,84,86,88,90,92,94,96,98,100,102,104,106,108,110,112,114,116,118,120,122,-1,-1,-1,-1,-1,124,126,128,130,132,-1,134,136,138,140,142,144,146,148,150,152,154,156,158,160,162,-1,-1,164,-1,166,168,170,172,174,176,178,180,-1,-1,182,184,186,-1,188,-1,-1,-1,-1,-1,-1,-1,-1,-1,-1,-1,-1,-1,-1,-1,-1,-1,-1,-1,-1,-1,-1,-1,-1,-1,-1,-1,-1,-1,-1,-1,-1,-1,-1,-1,-1,-1,-1,-1,-1,-1,-1,-1,-1,-1,-1,-1,-1,-1,-1,-1,-1,-1,-1,-1,-1,-1,-1,-1,-1,-1,-1,-1,-1,-1,-1,-1,-1,-1,-1,-1,-1,-1,-1,-1,-1,-1,-1,-1,-1],"split_conditions":[3E0,2E1,3E0,1E0,1E0,5.4E1,1E0,4E0,1E0,2E0,3.2E1,1E0,1E0,3.1E1,1E0,3E0,1E1,5E0,2E0,1.1E1,5E0,2.5731707E-1,3.4188595E-2,1E1,2E0,5E0,2.6204702E-1,2E0,1E0,2E0,1.3E1,3E0,1.2E1,6E0,5E0,5E0,1E0,1E0,9E0,2E0,1E1,7.8E1,4E0,2E0,3E0,4E0,1E0,2E0,7.2E1,1E0,1.6E1,3E0,2E1,6E0,4E0,1.7E1,2E0,1E0,2E0,1.4E1,1.6E1,4E0,1E1,7.4E0,-2.5461942E-3,7.039866E-2,1.8722081E-1,2.1420746E-1,5.394397E-2,2E0,1.7E1,5E0,1E0,3E0,2.8006423E-1,1E0,3E0,1E0,1.6E1,2E0,2E0,1E1,1E1,2E0,4E0,1E0,6E0,4E0,2E0,1.7E1,1.9978552E-1,-1.3710247E-1,6E0,-2.0057622E-1,1.0666667E1,2.2E1,3E0,4E0,7.571429E0,2E0,2E1,1E0,7.891362E-2,2.060598E-1,1.6E1,6E0,5E0,1.8237047E-1,4.3E1,1.5972874E-1,2.4804527E-2,1.3103038E-2,1.4332902E-1,-8.5852966E-2,-3.0976176E-1,1.992639E-1,-2.0235004E-3,-1.5680526E-1,1.167617E-1,1.3775157E-2,-3.062872E-1,1.957889E-1,5.80866E-2,-1.3121645E-1,1.4240216E-1,2.3616384E-1,-1.4087892E-1,-1.306171E-1,1.8645489E-1,1.5399511E-3,-2.169412E-1,-1.812574E-1,-1.0763249E-2,-2.1879073E-2,-1.6952336E-1,2.1562922E-1,-7.857945E-2,2.3623219E-1,9.8085426E-2,-1.0873761E-1,1.9335578E-1,-2.4814267E-1,-1.106861E-2,-4.160147E-2,1.6569375E-1,1.06322244E-1,-7.607173E-2,-1.687273E-1,9.780457E-2,1.7034248E-1,-2.6071897E-2,-1.10480584E-1,1.20366074E-1,1.3379267E-1,-1.4577082E-1,7.769515E-2,2.3208931E-1,-1.7311954E-1,1.6013885E-1,-1.9043687E-1,2.3449405E-1,-2.363118E-1,1.4435391E-1,2.5031587E-1,4.996973E-2,3.4085718E-1,-2.3942342E-2,1.628771E-1,-1.7995396E-1,3.4532273E-1,-3.861862E-2,-8.490247E-2,1.7564593E-1,-1.938015E-1,5.3864952E-2,-2.0362635E-1,1.4634277E-1,2.227393E-1,-1.5527675E-1,-2.9958355E-1,2.0601712E-2,-1.3738082E-1,7.0652746E-2,6.948858E-2,2.3650375E-1,1.9062956E-1,-2.3400548E-1,1.3251376E-1,-2.5361726E-1],"split_indices":[17,5,15,6,18,27,19,2,5,1,12,31,32,5,31,30,3,27,17,38,33,0,0,3,22,33,0,12,6,36,22,12,27,3,2,3,8,1,5,19,2,2,1,2,30,17,19,1,27,25,3,2,3,17,12,26,31,22,17,5,5,28,5,26,0,0,0,0,0,0,3,3,14,31,0,15,15,32,15,36,17,27,2,15,17,14,3,36,28,3,0,0,30,0,38,5,2,17,26,1,27,10,0,0,2,3,30,0,2,0,0,0,0,0,0,0,0,0,0,0,0,0,0,0,0,0,0,0,0,0,0,0,0,0,0,0,0,0,0,0,0,0,0,0,0,0,0,0,0,0,0,0,0,0,0,0,0,0,0,0,0,0,0,0,0,0,0,0,0,0,0,0,0,0,0,0,0,0,0,0,0,0,0,0,0,0,0,0,0],"split_type":[0,0,0,0,0,0,0,0,0,0,0,0,0,0,0,0,0,0,0,0,0,0,0,0,0,0,0,0,0,0,0,0,0,0,0,0,0,0,0,0,0,0,0,0,0,0,0,0,0,0,0,0,0,0,0,0,0,0,0,0,0,0,0,0,0,0,0,0,0,0,0,0,0,0,0,0,0,0,0,0,0,0,0,0,0,0,0,0,0,0,0,0,0,0,0,0,0,0,0,0,0,0,0,0,0,0,0,0,0,0,0,0,0,0,0,0,0,0,0,0,0,0,0,0,0,0,0,0,0,0,0,0,0,0,0,0,0,0,0,0,0,0,0,0,0,0,0,0,0,0,0,0,0,0,0,0,0,0,0,0,0,0,0,0,0,0,0,0,0,0,0,0,0,0,0,0,0,0,0,0,0,0,0,0,0,0,0,0,0],"sum_hessian":[1.0649262E4,5.112957E3,5.5363047E3,2.1597173E3,2.9532397E3,4.6393604E3,8.969446E2,4.6441846E2,1.6952988E3,2.859057E3,9.418273E1,4.4103555E3,2.2900462E2,7.977593E2,9.918531E1,4.4503162E2,1.9386835E1,7.5015205E1,1.6202836E3,2.7841814E3,7.487541E1,9.262096E1,1.5617715E0,1.9924869E3,2.4178687E3,2.06155E2,2.2849627E1,3.3101402E1,7.646579E2,1.5250145E1,8.3935165E1,4.3494998E2,1.0081659E1,1.4143118E1,5.243717E0,6.771411E0,6.824379E1,7.610938E2,8.5918976E2,2.2509739E3,5.3320764E2,6.2472874E1,1.2402535E1,9.3841284E2,1.0540742E3,2.1655232E3,2.5234543E2,1.9278654E2,1.3368445E1,1.616165E1,1.6939754E1,1.2869727E2,6.3596063E2,9.348811E0,5.9013343E0,7.420777E1,9.727394E0,2.8239117E2,1.5255878E2,6.382455E0,3.699205E0,5.7046514E0,8.438466E0,3.2304409E0,2.0132766E0,5.2368317E0,1.5345794E0,6.675179E1,1.4919984E0,7.337208E2,2.7372978E1,2.038599E2,6.553299E2,2.2332314E3,1.7742493E1,4.4095447E2,9.225317E1,4.5057808E1,1.7415066E1,4.4387097E0,7.9638257E0,5.0792645E2,4.3048636E2,7.438623E2,3.1021188E2,7.7739075E2,1.3881324E3,1.3764368E2,1.14701744E2,1.9096153E2,1.8250163E0,1.9675107E0,1.1400935E1,1.0809792E0,1.508067E1,1.1168155E1,5.7716E0,5.7329926E1,7.136734E1,6.143521E2,2.1608498E1,8.266024E0,1.0827873E0,2.6312761E0,3.270058E0,6.965372E1,4.55405E0,2.5523605E0,7.175034E0,2.734327E2,8.958469E0,7.005117E1,8.2507614E1,2.0679815E0,4.314473E0,2.4310064E0,1.2681986E0,1.1961186E0,4.5085325E0,1.1355659E0,7.302901E0,1.35114E0,1.8793008E0,7.1177124E2,2.1949568E1,2.3306158E1,4.0668197E0,7.189828E0,1.9667007E2,5.6063165E2,9.469825E1,2.1143564E3,1.1887492E2,2.2741473E2,2.1353975E2,7.3448586E1,1.8804586E1,4.1606144E1,3.451664E0,4.822814E0,1.2592253E1,3.1975932E0,1.2411163E0,1.2880936E0,6.675732E0,3.5419998E2,1.5372647E2,2.9536127E2,1.3512509E2,6.969415E2,4.692076E1,1.0827912E2,2.0193275E2,7.5321094E2,2.4179808E1,1.5809048E2,1.230042E3,1.244357E2,1.3207977E1,1.6694541E0,1.13032295E2,1.8991266E2,1.0488725E0,9.14542E0,2.2555146E0,1.358717E1,1.4935002E0,1.0169531E0,1.0151201E1,4.6232476E0,1.1483523E0,1.8516758E1,3.8813168E1,5.705808E1,1.4309259E1,6.082948E2,6.057307E0,1.0661836E1,1.0946663E1,7.199296E0,1.0667274E0,1.4336169E0,1.836441E0,5.190038E0,6.446368E1,1.7095078E0,2.844542E0,1.0177234E0,6.1573105E0],"tree_param":{"num_deleted":"0","num_feature":"40","num_nodes":"189","size_leaf_vector":"1"}},{"base_weights":[3.1411913E-3,5.766473E-1,-2.7560085E-1,2.6593342E-1,9.014457E-1,2.472711E-1,-3.929078E-1,2.8719725E-2,8.0050486E-1,1.71214E-1,9.571386E-1,3.266957E-1,-9.7471887E-1,-5.1644415E-1,-1.4964158E-2,3.1256524E-1,-7.64178E-1,8.9394796E-1,1.0119835E-1,7.6178735E-1,-2.2604087E-1,9.640699E-1,-7.297051E-1,1.8572079E-1,7.9762405E-1,-1.1293368E0,2.0433429E-1,-1.2228293E-1,-6.491598E-1,-1.1216849E0,1.7688102E-1,6.2166635E-2,7.8944856E-1,-9.497402E-1,4.707385E-1,1.0495185E0,5.2625096E-1,-8.646909E-1,8.870841E-1,2.7976257E-1,9.6602E-1,-3.995734E-1,2.2019087E-1,8.970899E-1,1.1259701E0,-3.4271988E-1,1.6193223E-1,3.0210698E-1,-5.674407E-1,1.1014576E0,6.460647E-1,-5.0025403E-2,-2.2777131E-1,-3.0071187E-1,6.626231E-1,-8.9734423E-1,-4.098041E-1,-1.173561E0,9.026149E-1,5.96946E-1,-2.0370066E-1,3.2136777E-1,-5.5981857E-1,9.45749E-1,1.1614703E-1,5.545686E-1,-1.0639971E0,7.447983E-1,-2.1979454E-1,1.0828581E0,7.2099E-1,-6.2757164E-1,1.1190203E0,-1.0923609E0,9.135542E-1,-5.568944E-1,1.1301298E0,6.003388E-1,-4.6889675E-1,1.0879432E0,3.1025562E-1,-6.532562E-1,4.7634965E-1,9.1505736E-1,-9.74095E-1,2.5334015E-1,1.1524526E0,-8.621521E-1,3.626717E-1,-8.3510715E-1,4.9842924E-1,1.250182E0,8.6770266E-1,4.3374577E-1,1.1264329E0,-4.197713E-1,5.5582917E-1,-9.706062E-1,7.1642524E-1,-1.0133059E0,3.3048403E-1,-4.6078813E-1,1.2528553E0,-1.1904706E0,1.372422E-1,2.4037062E-1,-4.544368E-2,8.241037E-1,-1.7213166E-1,-4.2227295E-1,7.7434933E-1,-1.4881394E-2,1.3086718E-1,-1.6749215E-1,1.4412759E-1,2.1036768E-1,7.119336E-2,-8.591883E-2,2.0242076E-1,-4.814684E-2,2.1598089E-1,-2.2095414E-1,2.406333E-1,-9.524312E-2,1.9427276E-1,2.1780758E-1,-3.3849314E-2,3.860932E-2,2.45253E-1,-1.6891854E-1,2.6261745E-2,-1.7621407E-1,2.3214217E-1,7.988405E-2,-2.4462406E-1,2.545306E-1,1.9100037E-3,1.8043385E-1,-3.7162194E-1,1.3697632E-1,2.3940979E-1,1.6147892E-1,-1.3637616E-1,-2.2134796E-1,2.6307905E-3,2.3593512E-1,7.589718E-2,-7.878238E-2,1.9749549E-1,-1.641901E-1,9.643701E-2,-2.1237109E-2,1.5826735E-1,2.0063458E-1,1.2434944E-1,-3.0356583E-1,1.4958586E-1,2.0467977E-1,-3.1194517E-1,2.3094499E-1,2.6626585E-2,8.57136E-2,-2.1793099E-1,8.2973145E-2,-1.5731724E-1,-1.8899094E-1,2.212888E-1,-9.269848E-2,2.1120389E-1,2.5521034E-1,2.6455275E-3,6.8710476E-2,1.9750135E-1,1.4138466E-1,-7.195262E-2,2.2828114E-1,4.4573393E-2,-3.2885846E-2,-1.7873321E-1,-1.4581299E-1,1.3534264E-1,-2.3393475E-1,-7.557185E-2,1.2196622E-1,2.8718784E-1,-2.1254747E-1,1.5298706E-1,-3.4995917E-2,3.7390652E-1,1.9236643E-2,-1.2517278E-1,-9.061538E-2,2.6479983E-1,-1.3535917E-1,-2.408068E-1,9.711487E-3,1.843607E-1,-7.591373E-2,1.6243573E-1,-1.7510463E-1,-4.8689914E-4,-1.2267592E-1,1.8900165E-1],"categories":[],"categories_nodes":[],"categories_segments":[],"categories_sizes":[],"default_left":[0,0,0,0,0,0,0,0,0,0,0,0,0,0,0,0,0,0,0,0,0,0,0,0,0,0,0,0,0,0,0,0,0,0,0,0,0,0,0,0,0,0,0,0,0,0,0,0,0,0,0,0,0,0,0,0,0,0,0,0,0,0,0,0,0,0,0,0,0,0,0,0,0,0,0,0,0,0,0,0,0,0,0,0,0,0,0,0,0,0,0,0,0,0,0,0,0,0,0,0,0,0,0,0,0,0,0,0,0,0,0,0,0,0,0,0,0,0,0,0,0,0,0,0,0,0,0,0,0,0,0,0,0,0,0,0,0,0,0,0,0,0,0,0,0,0,0,0,0,0,0,0,0,0,0,0,0,0,0,0,0,0,0,0,0,0,0,0,0,0,0,0,0,0,0,0,0,0,0,0,0,0,0,0,0,0,0,0,0,0,0,0,0,0,0,0,0,0,0,0,0,0,0],"id":7,"left_children":[1,3,5,7,9,11,13,15,17,19,21,23,25,27,29,31,33,35,37,39,41,43,45,47,49,51,-1,53,55,57,59,61,63,65,67,69,71,73,75,77,79,81,-1,83,85,-1,-1,87,89,91,93,-1,-1,95,97,99,101,103,105,107,109,111,113,115,117,119,121,123,-1,125,127,129,131,133,135,137,139,141,143,145,147,149,151,153,155,157,159,161,163,165,167,169,171,173,175,177,179,181,183,185,187,189,191,193,-1,-1,-1,195,197,199,201,-1,-1,-1,-1,-1,-1,-1,-1,-1,-1,-1,-1,-1,-1,-1,-1,-1,-1,-1,-1,-1,-1,-1,-1,-1,-1,-1,-1,-1,-1,-1,-1,-1,-1,-1,-1,-1,-1,-1,-1,-1,-1,-1,-1,-1,-1,-1,-1,-1,-1,-1,-1,-1,-1,-1,-1,-1,-1,-1,-1,-1,-1,-1,-1,-1,-1,-1,-1,-1,-1,-1,-1,-1,-1,-1,-1,-1,-1,-1,-1,-1,-1,-1,-1,-1,-1,-1,-1,-1,-1,-1,-1],"loss_changes":[1.594063E3,3.2889636E2,4.116792E2,2.115236E2,6.466724E1,1.1971702E2,2.5590033E2,2.605295E2,3.341275E1,2.6960342E1,1.8018799E1,7.65892E1,2.4406387E1,2.1600745E2,2.8709357E2,1.0173276E2,7.03781E1,2.531186E1,4.7497402E1,4.272724E0,1.633712E1,1.4988525E1,1.142842E1,7.826359E1,1.153714E1,3.0428314E-1,0E0,1.4609486E2,1.8319409E2,2.2037033E1,1.843677E2,9.0460655E1,3.0764557E1,4.624704E1,1.825608E1,2.6882935E0,9.401513E1,1.2384203E1,1.2715288E1,3.9154358E0,2.2214336E0,1.404025E1,0E0,3.6142334E1,9.594727E0,0E0,0E0,5.4769096E1,3.453455E1,1.9435043E0,1.7858421E1,0E0,0E0,8.686232E1,1.7677643E1,2.1621338E2,1.3407504E2,6.9558105E0,2.151719E0,9.5892166E1,1.2974683E2,5.2220837E1,5.9292706E1,1.4514969E1,2.8018904E1,8.369086E0,2.4182953E1,1.0174053E1,0E0,2.3937683E0,8.345402E0,7.8422318E0,8.568024E0,5.440796E0,1.2008717E0,1.2367519E1,6.825638E-2,3.4816108E0,1.5830042E0,1.2803249E0,3.4489803E0,9.598482E0,2.7361708E0,2.6230408E1,1.0925878E1,2.0978924E1,8.07312E-1,1.1767527E1,4.4403145E1,2.151107E1,1.3699932E1,1.6140594E0,1.9929333E0,2.7648653E1,4.8310852E-1,9.016878E1,1.6662182E1,3.354063E-1,1.3518234E1,1.22609375E2,1.026984E2,1.4061423E2,6.3190613E0,5.354614E-1,0E0,0E0,0E0,3.2027466E1,2.5993986E1,9.428153E1,2.6852066E1,0E0,0E0,0E0,0E0,0E0,0E0,0E0,0E0,0E0,0E0,0E0,0E0,0E0,0E0,0E0,0E0,0E0,0E0,0E0,0E0,0E0,0E0,0E0,0E0,0E0,0E0,0E0,0E0,0E0,0E0,0E0,0E0,0E0,0E0,0E0,0E0,0E0,0E0,0E0,0E0,0E0,0E0,0E0,0E0,0E0,0E0,0E0,0E0,0E0,0E0,0E0,0E0,0E0,0E0,0E0,0E0,0E0,0E0,0E0,0E0,0E0,0E0,0E0,0E0,0E0,0E0,0E0,0E0,0E0,0E0,0E0,0E0,0E0,0E0,0E0,0E0,0E0,0E0,0E0,0E0,0E0,0E0,0E0,0E0,0E0,0E0,0E0,0E0,0E0,0E0,0E0,0E0],"parents":[2147483647,0,0,1,1,2,2,3,3,4,4,5,5,6,6,7,7,8,8,9,9,10,10,11,11,12,12,13,13,14,14,15,15,16,16,17,17,18,18,19,19,20,20,21,21,22,22,23,23,24,24,25,25,27,27,28,28,29,29,30,30,31,31,32,32,33,33,34,34,35,35,36,36,37,37,38,38,39,39,40,40,41,41,43,43,44,44,47,47,48,48,49,49,50,50,53,53,54,54,55,55,56,56,57,57,58,58,59,59,60,60,61,61,62,62,63,63,64,64,65,65,66,66,67,67,69,69,70,70,71,71,72,72,73,73,74,74,75,75,76,76,77,77,78,78,79,79,80,80,81,81,82,82,83,83,84,84,85,85,86,86,87,87,88,88,89,89,90,90,91,91,92,92,93,93,94,94,95,95,96,96,97,97,98,98,99,99,100,100,101,101,102,102,103,103,107,107,108,108,109,109,110,110],"right_children":[2,4,6,8,10,12,14,16,18,20,22,24,26,28,30,32,34,36,38,40,42,44,46,48,50,52,-1,54,56,58,60,62,64,66,68,70,72,74,76,78,80,82,-1,84,86,-1,-1,88,90,92,94,-1,-1,96,98,100,102,104,106,108,110,112,114,116,118,120,122,124,-1,126,128,130,132,134,136,138,140,142,144,146,148,150,152,154,156,158,160,162,164,166,168,170,172,174,176,178,180,182,184,186,188,190,192,194,-1,-1,-1,196,198,200,202,-1,-1,-1,-1,-1,-1,-1,-1,-1,-1,-1,-1,-1,-1,-1,-1,-1,-1,-1,-1,-1,-1,-1,-1,-1,-1,-1,-1,-1,-1,-1,-1,-1,-1,-1,-1,-1,-1,-1,-1,-1,-1,-1,-1,-1,-1,-1,-1,-1,-1,-1,-1,-1,-1,-1,-1,-1,-1,-1,-1,-1,-1,-1,-1,-1,-1,-1,-1,-1,-1,-1,-1,-1,-1,-1,-1,-1,-1,-1,-1,-1,-1,-1,-1,-1,-1,-1,-1,-1,-1,-1,-1],"split_conditions":[1E0,1E0,1E0,4E0,2E0,8E0,4E0,4E0,8E0,1.4E1,4.690919E1,2E0,3E0,1.7E1,5E0,3E0,1E0,5E0,6E0,1.5275252E0,1E0,1E0,1E0,1E0,3E0,6.8E0,2.0433429E-1,1E0,1E0,3E0,4E0,1.3E1,2.1E1,1.9E1,7.4E1,4E0,1.2E1,4E0,7E0,1.2E1,2E0,9.5E0,2.2019087E-1,4E0,4E0,-3.4271988E-1,1.6193223E-1,3E0,1E0,1E0,1E0,-5.0025403E-2,-2.2777131E-1,3E0,4E0,1.5E1,1E0,1.9E1,2.5E1,4E0,1E0,2E0,6E0,1E0,1.2E1,3E0,1E0,6.2222223E0,-2.1979454E-1,1E0,6E0,1.5E1,3.3E1,5.2E1,3E0,3E0,7E0,1E0,1E0,1.02E1,8.1E0,2E0,1E0,3E0,9.8E1,2E0,2.4222221E1,2E0,1E0,5E0,1.2E1,2E0,1E0,3E0,7E0,1.1E1,5.1666665E0,1.6E1,2E0,1E0,6E0,2.7E1,3E0,8.164966E-1,1.372422E-1,2.4037062E-1,-4.544368E-2,3E0,1.7E1,1.6E1,6.5E1,-1.4881394E-2,1.3086718E-1,-1.6749215E-1,1.4412759E-1,2.1036768E-1,7.119336E-2,-8.591883E-2,2.0242076E-1,-4.814684E-2,2.1598089E-1,-2.2095414E-1,2.406333E-1,-9.524312E-2,1.9427276E-1,2.1780758E-1,-3.3849314E-2,3.860932E-2,2.45253E-1,-1.6891854E-1,2.6261745E-2,-1.7621407E-1,2.3214217E-1,7.988405E-2,-2.4462406E-1,2.545306E-1,1.9100037E-3,1.8043385E-1,-3.7162194E-1,1.3697632E-1,2.3940979E-1,1.6147892E-1,-1.3637616E-1,-2.2134796E-1,2.6307905E-3,2.3593512E-1,7.589718E-2,-7.878238E-2,1.9749549E-1,-1.641901E-1,9.643701E-2,-2.1237109E-2,1.5826735E-1,2.0063458E-1,1.2434944E-1,-3.0356583E-1,1.4958586E-1,2.0467977E-1,-3.1194517E-1,2.3094499E-1,2.6626585E-2,8.57136E-2,-2.1793099E-1,8.2973145E-2,-1.5731724E-1,-1.8899094E-1,2.212888E-1,-9.269848E-2,2.1120389E-1,2.5521034E-1,2.6455275E-3,6.8710476E-2,1.9750135E-1,1.4138466E-1,-7.195262E-2,2.2828114E-1,4.4573393E-2,-3.2885846E-2,-1.7873321E-1,-1.4581299E-1,1.3534264E-1,-2.3393475E-1,-7.557185E-2,1.2196622E-1,2.8718784E-1,-2.1254747E-1,1.5298706E-1,-3.4995917E-2,3.7390652E-1,1.9236643E-2,-1.2517278E-1,-9.061538E-2,2.6479983E-1,-1.3535917E-1,-2.408068E-1,9.711487E-3,1.843607E-1,-7.591373E-2,1.6243573E-1,-1.7510463E-1,-4.8689914E-4,-1.2267592E-1,1.8900165E-1],"split_indices":[4,16,6,17,17,21,17,24,24,5,29,31,17,5,3,17,21,2,17,29,18,19,31,22,33,26,0,16,16,21,2,5,5,5,2,30,2,31,3,5,30,26,0,22,24,0,0,4,19,7,19,0,0,17,3,2,18,4,24,30,19,17,2,2,2,17,20,26,0,14,17,3,5,5,30,22,17,2,6,26,26,16,12,2,5,30,26,2,14,35,27,22,16,2,22,5,26,5,16,20,4,5,4,29,0,0,0,12,3,2,5,0,0,0,0,0,0,0,0,0,0,0,0,0,0,0,0,0,0,0,0,0,0,0,0,0,0,0,0,0,0,0,0,0,0,0,0,0,0,0,0,0,0,0,0,0,0,0,0,0,0,0,0,0,0,0,0,0,0,0,0,0,0,0,0,0,0,0,0,0,0,0,0,0,0,0,0,0,0,0,0,0,0,0,0,0,0,0,0,0,0,0,0],"split_type":[0,0,0,0,0,0,0,0,0,0,0,0,0,0,0,0,0,0,0,0,0,0,0,0,0,0,0,0,0,0,0,0,0,0,0,0,0,0,0,0,0,0,0,0,0,0,0,0,0,0,0,0,0,0,0,0,0,0,0,0,0,0,0,0,0,0,0,0,0,0,0,0,0,0,0,0,0,0,0,0,0,0,0,0,0,0,0,0,0,0,0,0,0,0,0,0,0,0,0,0,0,0,0,0,0,0,0,0,0,0,0,0,0,0,0,0,0,0,0,0,0,0,0,0,0,0,0,0,0,0,0,0,0,0,0,0,0,0,0,0,0,0,0,0,0,0,0,0,0,0,0,0,0,0,0,0,0,0,0,0,0,0,0,0,0,0,0,0,0,0,0,0,0,0,0,0,0,0,0,0,0,0,0,0,0,0,0,0,0,0,0,0,0,0,0,0,0,0,0,0,0,0,0],"sum_hessian":[9.969607E3,3.2603774E3,6.7092295E3,1.6672473E3,1.5931302E3,1.229202E3,5.4800273E3,1.1555367E3,5.1171054E2,1.1318251E2,1.4799478E3,1.1548724E3,7.432958E1,4.1297817E3,1.3502456E3,8.513662E2,3.0417056E2,4.511486E2,6.0561935E1,4.5147293E1,6.803522E1,1.4743182E3,5.6295776E0,8.8987726E2,2.6499518E2,6.938974E1,4.9398394E0,1.0407396E3,3.0890422E3,1.9876407E2,1.1514814E3,5.5898737E2,2.9237885E2,2.646364E2,3.9534126E1,3.1571646E2,1.3543214E2,2.7124464E1,3.3437473E1,1.414126E1,3.1006033E1,6.0785168E1,7.2500496E0,1.0474974E3,4.2682074E2,3.3653872E0,2.2641907E0,7.7128876E2,1.1858851E2,8.610721E1,1.7888797E2,1.0354254E0,6.835432E1,8.484764E2,1.9226323E2,1.515202E3,1.5738403E3,1.9420744E2,4.5566278E0,5.4707825E2,6.044032E2,3.9490225E2,1.6408508E2,2.3696506E2,5.541378E1,1.8409039E1,2.4622739E2,3.4105145E1,5.428983E0,2.845443E2,3.117213E1,4.5943886E1,8.948826E1,2.4387789E1,2.7366762E0,4.631222E0,2.880625E1,1.0040169E1,4.1010904E0,2.5589289E1,5.4167433E0,4.733137E1,1.3453794E1,1.0380409E3,9.456483E0,1.28827915E1,4.1393796E2,3.7484005E1,7.3380475E2,9.495856E1,2.3629951E1,4.9967537E1,3.6139668E1,1.2537581E2,5.3512157E1,7.4537854E2,1.03097885E2,5.5881405E0,1.8667508E2,1.384608E3,1.3059392E2,1.527717E3,4.6123272E1,1.9281421E2,1.3932344E0,3.5521038E0,1.0045242E0,4.2228036E2,1.247979E2,4.9446875E2,1.09934456E2,1.8078864E2,2.1411362E2,1.351306E2,2.8954485E1,2.0017445E2,3.6790604E1,3.47609E1,2.0652882E1,7.538421E0,1.0870618E1,2.4238103E2,3.8463593E0,5.16545E0,2.8939693E1,2.8327646E2,1.2678676E0,1.5919983E1,1.5252148E1,3.5639053E1,1.0304833E1,1.4161328E0,8.807213E1,1.7998163E0,2.2587973E1,1.6667825E0,1.0698937E0,2.3277583E0,2.3034635E0,5.231666E0,2.3574585E1,8.963102E0,1.077067E0,1.2074757E0,2.893615E0,2.2066895E1,3.5223954E0,2.860632E0,2.556111E0,4.1481857E1,5.849514E0,4.954275E0,8.499517E0,7.9637573E2,2.4166519E2,7.2772493E0,2.1792338E0,9.347988E0,3.5348039E0,4.128847E2,1.0532582E0,5.484472E0,3.1999533E1,7.025377E2,3.1267033E1,9.0359566E1,4.5989947E0,8.733021E0,1.4896931E1,4.8912968E1,1.0545692E0,7.4431276E0,2.869654E1,9.3348335E1,3.202747E1,5.2380943E1,1.131215E0,4.8525974E2,2.6011877E2,8.432841E0,9.466505E1,3.4546306E0,2.1335099E0,1.6419724E2,2.2477846E1,1.3475513E3,3.705683E1,9.897445E1,3.1619478E1,3.4936493E2,1.1783522E3,1.6315876E0,4.4491684E1,6.269633E0,1.8654457E2,4.741269E1,3.7486768E2,1.0358286E2,2.1215033E1,2.3725119E2,2.5721756E2,1.175482E1,9.8179634E1],"tree_param":{"num_deleted":"0","num_feature":"40","num_nodes":"203","size_leaf_vector":"1"}},{"base_weights":[3.4901642E-3,5.173542E-1,-2.3562546E-1,2.3566127E-1,8.2367533E-1,2.0959365E-1,-3.3596882E-1,4.1471544E-1,-4.2826402E-1,8.6481076E-1,1.25229E-1,3.824266E-1,-2.5455868E-1,-3.8836235E-1,4.5950425E-1,7.6244754E-1,2.7201834E-1,1.1601273E0,-5.0452876E-1,7.867964E-1,1.0354291E0,-2.822934E-1,1.0641154E0,1.485813E-1,6.6306347E-1,-5.5548644E-1,4.644421E-1,-4.1427517E-1,1.087325E0,5.837294E-1,-8.3427155E-1,7.9799694E-1,-2.600095E-1,1.8728496E-1,1.0742469E0,-4.1830968E-2,1.320156E0,-5.989234E-1,6.337833E-1,7.9962337E-1,-8.553335E-1,6.4722306E-1,1.055095E0,-5.7067406E-1,6.5512E-1,4.6223834E-2,1.1109267E0,2.8054684E-1,-7.0453227E-1,7.314424E-1,-5.349308E-2,-2.7374694E-1,-1.0892777E0,7.3024833E-1,-5.4011554E-1,-4.4443452E-1,7.888502E-1,1.1309369E0,-1.148508E-1,1.2512529E0,3.6417246E-1,-9.5923895E-1,1.6316837E-1,8.138571E-1,-9.572434E-1,-2.2173984E-1,2.9638353E-1,-2.1927588E-1,1.1155374E0,2.9100344E-1,6.2698483E-1,-7.0770276E-1,2.627387E-1,1.3131864E0,-4.3390942E-1,8.136907E-1,-3.0312094E-1,-3.3905563E-1,5.948421E-1,9.2922324E-1,-4.3533278E-1,1.0591493E0,9.974679E-3,-8.1276023E-1,1.0294744E0,1.0715518E0,-6.0404617E-1,1.1497166E0,3.174788E-2,-9.1630673E-1,3.7645805E-1,-8.293896E-1,2.4594139E-1,5.930819E-1,9.364831E-1,-8.623616E-1,8.626303E-1,3.673227E-1,-5.046626E-1,-1.1318111E0,1.6869551E-1,8.843492E-1,-1.0164253E0,5.0961924E-1,-2.1776953E-1,-3.4068158E-1,-7.700265E-1,5.5530787E-1,1.2448062E0,2.838281E-1,1.228296E0,7.807463E-1,1.358625E0,2.1687427E-1,1.2223433E0,-1.0734926E0,2.4702452E-1,1.6572285E-1,-1.1564206E-1,-7.729601E-2,-2.3851128E-1,5.2239895E-3,-1.9401331E-1,1.4030968E-1,4.0859617E-2,6.9987275E-2,2.2451644E-1,-1.1449019E-2,1.755855E-1,-5.555851E-2,-1.7318109E-1,1.07641056E-1,-2.1444122E-1,3.1835097E-1,1.7131086E-2,-1.2472427E-1,1.1295958E-1,1.913536E-1,1.4531799E-1,1.981259E-1,-2.5943488E-1,1.4882469E-1,2.79624E-2,1.9841398E-1,3.988483E-2,1.9314161E-1,2.2294562E-1,-2.0349851E-1,1.508329E-2,2.8971588E-2,2.4616575E-1,-7.31019E-2,2.6287696E-1,-1.5293233E-1,-1.5175812E-2,2.3688714E-1,7.763537E-2,-2.1556309E-1,1.1785269E-1,3.871254E-2,1.4156848E-1,-1.8126962E-1,1.8958835E-1,1.7033494E-1,9.145088E-2,1.920231E-1,-6.7489825E-2,-2.2895859E-1,1.0580262E-1,2.0498149E-1,-6.2394228E-2,-1.9330734E-1,1.5113395E-1,-1.4797513E-1,1.2927847E-1,-2.3060207E-1,3.3453062E-2,2.199347E-1,7.402757E-2,-2.2944915E-1,-3.108922E-2,-1.9630587E-1,2.7696237E-1,-3.5517137E-2,-1.5560274E-1,-1.7177492E-1,4.0380724E-2,5.7865698E-2,2.1157506E-1,-7.565216E-3,2.564349E-1,1.9932865E-1,-1.7959271E-1,1.5198119E-2,2.4917965E-1,-7.9768725E-2,2.1747546E-1,4.1067702E-1,2.1425441E-1,-1.022379E-2,1.3023089E-1,2.6062012E-1,8.143856E-3,-2.2206834E-1,-3.37587E-2,1.2894787E-1,-5.2138966E-2],"categories":[],"categories_nodes":[],"categories_segments":[],"categories_sizes":[],"default_left":[0,0,0,0,0,0,0,0,0,0,0,0,0,0,0,0,0,0,0,0,0,0,0,0,0,0,0,0,0,0,0,0,0,0,0,0,0,0,0,0,0,0,0,0,0,0,0,0,0,0,0,0,0,0,0,0,0,0,0,0,0,0,0,0,0,0,0,0,0,0,0,0,0,0,0,0,0,0,0,0,0,0,0,0,0,0,0,0,0,0,0,0,0,0,0,0,0,0,0,0,0,0,0,0,0,0,0,0,0,0,0,0,0,0,0,0,0,0,0,0,0,0,0,0,0,0,0,0,0,0,0,0,0,0,0,0,0,0,0,0,0,0,0,0,0,0,0,0,0,0,0,0,0,0,0,0,0,0,0,0,0,0,0,0,0,0,0,0,0,0,0,0,0,0,0,0,0,0,0,0,0,0,0,0,0,0,0,0,0,0,0,0,0,0,0,0,0,0,0,0,0,0,0,0,0,0,0],"id":8,"left_children":[1,3,5,7,9,11,13,15,17,19,21,23,25,27,29,31,33,35,37,39,41,43,45,47,49,51,53,55,57,59,61,63,-1,65,67,-1,69,71,73,75,77,79,81,83,85,-1,87,89,91,93,95,97,99,101,103,105,107,109,-1,111,113,115,-1,117,119,121,123,-1,125,-1,127,129,131,133,135,137,139,-1,141,143,-1,145,-1,147,149,151,153,155,-1,157,159,161,-1,163,165,167,169,171,173,175,-1,177,179,181,-1,183,185,187,189,191,193,195,197,199,201,203,205,-1,-1,-1,-1,-1,-1,-1,-1,-1,-1,-1,-1,-1,-1,-1,-1,-1,-1,-1,-1,-1,-1,-1,-1,-1,-1,-1,-1,-1,-1,-1,-1,-1,-1,-1,-1,-1,-1,-1,-1,-1,-1,-1,-1,-1,-1,-1,-1,-1,-1,-1,-1,-1,-1,-1,-1,-1,-1,-1,-1,-1,-1,-1,-1,-1,-1,-1,-1,-1,-1,-1,-1,-1,-1,-1,-1,-1,-1,-1,-1,-1,-1,-1,-1,-1,-1,-1,-1,-1,-1],"loss_changes":[1.1462289E3,2.554245E2,2.8447937E2,1.8380034E2,4.0653625E1,9.4078415E1,2.167221E2,6.018277E1,4.0388916E1,1.701715E1,3.0940338E1,5.5949615E1,6.916471E1,1.8687244E2,5.2161964E1,